{"learner":{"attributes":{"scikit_learn":"{\"_estimator_type\": \"classifier\"}"},"feature_names":["CURR_APP_ACCOMMODATION_CLUSTER","CURR_APP_AMT_ANNUITY","CURR_APP_ANNUITY_TO_CREDIT_RATIO","CURR_APP_ANNUITY_TO_GOODS_PRICE_RATIO","CURR_APP_ANNUITY_TO_INCOME_RATIO","CURR_APP_CAR_AGE_RATIO","CURR_APP_CREDIT_TERM","CURR_APP_CREDIT_TO_GOODS_PRICE_RATIO","CURR_APP_CREDIT_TO_INCOME_RATIO","CURR_APP_DAYS_ID_PUBLISH","CURR_APP_DAYS_REGISTRATION","CURR_APP_EMPLOYED_TO_BIRTH_RATIO","CURR_APP_EXT_SOURCE_1","CURR_APP_EXT_SOURCE_2","CURR_APP_EXT_SOURCE_3","CURR_APP_ID_CHANGE_YEARS","CURR_APP_ID_PUBLISH_TO_BIRTH_RATIO","CURR_APP_ID_PUBLISH_TO_EMPLOYED_RATIO","CURR_APP_ID_PUBLISH_TO_REGISTRATION_RATIO","CURR_APP_LAST_PHONE_CHANGE_TO_EMPLOYED_RATIO","CURR_APP_REGION_POPULATION_RELATIVE","CURR_APP_REGION_RATING_CLIENT","CURR_APP_REGION_RATING_CLIENT_W_CITY","CURR_APP_REGISTRATION_TO_BIRTH_RATIO","CURR_APP_REGISTRATION_YEARS","CURR_APP_YEARS_EMPLOYED","BUREAU_DAYS_ENDDATE_FACT_CREDIT_DIFF_MAX","BUREAU_DAYS_ENDDATE_FACT_CREDIT_DIFF_MEAN","BUREAU_DAYS_ENDDATE_MAX","BUREAU_CREDIT_UTILIZATION_MEDIAN","BUREAU_DAYS_ENDDATE_FACT_CREDIT_DIFF_MEDIAN","BUREAU_AMT_CREDIT_MAX_OVERDUE_MEDIAN","BUREAU_DEBT_TO_CREDIT_SUM_MEDIAN","BUREAU_DEBT_TO_CREDIT_SUM_MEAN","BUREAU_AMT_CREDIT_MAX_OVERDUE_MEAN","BUREAU_AMT_CREDIT_MAX_OVERDUE_MAX","BUREAU_DAYS_ENDDATE_MIN","BUREAU_DEBT_TO_CREDIT_SUM_MAX","BUREAU_DAYS_ENDDATE_MEAN_CUSTOM","BUREAU_CREDIT_SUM_RATIO_WEIGHTED","BUREAU_CREDIT_SUM_RATIO","BUREAU_DAYS_ENDDATE_DIFF_STD","BUREAU_ENDDATE_DIFF_MEAN","BUREAU_AMT_ANNUITY_POS_ENDDATE_SUM","BUREAU_AMT_CREDIT_SUM_LIMIT_MAX","BUREAU_DAYS_ENDDATE_MEDIAN_CUSTOM","BUREAU_DAYS_CREDIT_MEDIAN","BUREAU_DAYS_CREDIT_MIN","BUREAU_DAYS_CREDIT_MAX","INSTALLMENTS_DAYS_EARLY_PAYMENT_001","INSTALLMENTS_TIME_TO_NEXT_INSTALLMENT_SCHEDULED_001","INSTALLMENTS_LAST_INSTALLMENT_FOR_LOAN_001","INSTALLMENTS_TIME_TO_NEXT_PAYMENT_ACTUAL_001","INSTALLMENTS_PAYMENT_STREAK_001","INSTALLMENTS_INSTALLMENT_VERSION_CHANGED_001","INSTALLMENTS_PAID_ON_TIME_001","INSTALLMENTS_AMT_DIFF_basic","INSTALLMENTS_PAYMENT_RATIO_001","CREDIT_CARD_BALANCE_TO_MIN_REG_RATIO_0005","CREDIT_CARD_DRAWINGS_PER_COUNT_basic","CREDIT_CARD_AMT_DRAWINGS_POS_CURRENT_basic","CREDIT_CARD_MIN_REG_TO_LIMIT_RATIO_basic","CREDIT_CARD_PAYMENT_COVERAGE_OF_PRINCIPAL_0005","CREDIT_CARD_AMT_DRAWINGS_ATM_CURRENT_basic","CREDIT_CARD_TOTAL_PAYMENT_MIN_REG_DIFF_PCT_basic","CREDIT_CARD_PRINCIPAL_TO_TOTAL_RECEIVABLE_RATIO_0001","CREDIT_CARD_PAYMENT_TO_TOTAL_RECEIVABLE_RATIO_basic","CREDIT_CARD_CNT_DRAWINGS_TO_LIMIT_RATIO_0001","CREDIT_CARD_CURRENT_PAYMENT_MIN_REG_DIFF_PCT_0001","CREDIT_CARD_DRAWINGS_TO_LIMIT_RATIO_basic","CREDIT_CARD_CNT_DRAWINGS_OTHER_PCT_0001","CREDIT_CARD_IS_DPD_DEF_0001","CREDIT_CARD_BALANCE_TO_TOTAL_RECEIVABLE_RATIO_basic","CREDIT_CARD_CNT_DRAWINGS_ATM_CURRENT_0001","CREDIT_CARD_AMT_PAYMENT_TOTAL_CURRENT_0005","CREDIT_CARD_AMT_TOTAL_RECEIVABLE_0005","CREDIT_CARD_AMT_BALANCE_0005","CREDIT_CARD_BALANCE_TO_LIMIT_RATIO_0005","CREDIT_CARD_AMT_RECEIVABLE_PRINCIPAL_0005","CREDIT_CARD_AMT_INST_MIN_REGULARITY_0001","CREDIT_CARD_AMT_DRAWINGS_CURRENT_0001","CREDIT_CARD_PAYMENT_TO_PRINCIPAL_RECEIVABLE_RATIO_0005","CREDIT_CARD_AMT_CREDIT_LIMIT_ACTUAL_0001","CREDIT_CARD_HAS_ATM_DRAWINGS_0005","CREDIT_CARD_CNT_INSTALMENT_MATURE_CUM_0005","PREV_APP_AMT_ANNUITY_max","PREV_APP_AMT_ANNUITY_median","PREV_APP_AMT_ANNUITY_min","PREV_APP_AMT_APPLICATION_TO_CREDIT_RATIO_max","PREV_APP_AMT_APPLICATION_TO_CREDIT_RATIO_median","PREV_APP_AMT_CREDIT_TO_GOODS_PRICE_RATIO_max","PREV_APP_AMT_CREDIT_TO_GOODS_PRICE_RATIO_median","PREV_APP_AMT_CREDIT_median","PREV_APP_AMT_DOWN_PAYMENT_max","PREV_APP_ANNUITY_TO_CREDIT_RATIO_max","PREV_APP_ANNUITY_TO_CREDIT_RATIO_median","PREV_APP_DAYS_TERMINATION_min","PREV_APP_RATE_INTEREST_PRIMARY_max","CURR_APP_AMT_CREDIT_log","EMPLOYMENT_PLACEHOLDER"],"feature_types":["int","float","float","float","float","float","float","float","float","int","float","float","float","float","float","float","float","float","float","float","float","int","int","float","float","float","float","float","float","float","float","float","float","float","float","float","float","float","float","float","float","float","float","float","float","float","float","float","float","float","float","float","float","float","float","float","float","float","float","float","float","float","float","float","float","float","float","float","float","float","float","float","float","float","float","float","float","float","float","float","float","float","float","float","float","float","float","float","float","float","float","float","float","float","float","float","float","float","float","i"],"gradient_booster":{"model":{"gbtree_model_param":{"num_parallel_tree":"1","num_trees":"427"},"iteration_indptr":[0,1,2,3,4,5,6,7,8,9,10,11,12,13,14,15,16,17,18,19,20,21,22,23,24,25,26,27,28,29,30,31,32,33,34,35,36,37,38,39,40,41,42,43,44,45,46,47,48,49,50,51,52,53,54,55,56,57,58,59,60,61,62,63,64,65,66,67,68,69,70,71,72,73,74,75,76,77,78,79,80,81,82,83,84,85,86,87,88,89,90,91,92,93,94,95,96,97,98,99,100,101,102,103,104,105,106,107,108,109,110,111,112,113,114,115,116,117,118,119,120,121,122,123,124,125,126,127,128,129,130,131,132,133,134,135,136,137,138,139,140,141,142,143,144,145,146,147,148,149,150,151,152,153,154,155,156,157,158,159,160,161,162,163,164,165,166,167,168,169,170,171,172,173,174,175,176,177,178,179,180,181,182,183,184,185,186,187,188,189,190,191,192,193,194,195,196,197,198,199,200,201,202,203,204,205,206,207,208,209,210,211,212,213,214,215,216,217,218,219,220,221,222,223,224,225,226,227,228,229,230,231,232,233,234,235,236,237,238,239,240,241,242,243,244,245,246,247,248,249,250,251,252,253,254,255,256,257,258,259,260,261,262,263,264,265,266,267,268,269,270,271,272,273,274,275,276,277,278,279,280,281,282,283,284,285,286,287,288,289,290,291,292,293,294,295,296,297,298,299,300,301,302,303,304,305,306,307,308,309,310,311,312,313,314,315,316,317,318,319,320,321,322,323,324,325,326,327,328,329,330,331,332,333,334,335,336,337,338,339,340,341,342,343,344,345,346,347,348,349,350,351,352,353,354,355,356,357,358,359,360,361,362,363,364,365,366,367,368,369,370,371,372,373,374,375,376,377,378,379,380,381,382,383,384,385,386,387,388,389,390,391,392,393,394,395,396,397,398,399,400,401,402,403,404,405,406,407,408,409,410,411,412,413,414,415,416,417,418,419,420,421,422,423,424,425,426,427],"tree_info":[0,0,0,0,0,0,0,0,0,0,0,0,0,0,0,0,0,0,0,0,0,0,0,0,0,0,0,0,0,0,0,0,0,0,0,0,0,0,0,0,0,0,0,0,0,0,0,0,0,0,0,0,0,0,0,0,0,0,0,0,0,0,0,0,0,0,0,0,0,0,0,0,0,0,0,0,0,0,0,0,0,0,0,0,0,0,0,0,0,0,0,0,0,0,0,0,0,0,0,0,0,0,0,0,0,0,0,0,0,0,0,0,0,0,0,0,0,0,0,0,0,0,0,0,0,0,0,0,0,0,0,0,0,0,0,0,0,0,0,0,0,0,0,0,0,0,0,0,0,0,0,0,0,0,0,0,0,0,0,0,0,0,0,0,0,0,0,0,0,0,0,0,0,0,0,0,0,0,0,0,0,0,0,0,0,0,0,0,0,0,0,0,0,0,0,0,0,0,0,0,0,0,0,0,0,0,0,0,0,0,0,0,0,0,0,0,0,0,0,0,0,0,0,0,0,0,0,0,0,0,0,0,0,0,0,0,0,0,0,0,0,0,0,0,0,0,0,0,0,0,0,0,0,0,0,0,0,0,0,0,0,0,0,0,0,0,0,0,0,0,0,0,0,0,0,0,0,0,0,0,0,0,0,0,0,0,0,0,0,0,0,0,0,0,0,0,0,0,0,0,0,0,0,0,0,0,0,0,0,0,0,0,0,0,0,0,0,0,0,0,0,0,0,0,0,0,0,0,0,0,0,0,0,0,0,0,0,0,0,0,0,0,0,0,0,0,0,0,0,0,0,0,0,0,0,0,0,0,0,0,0,0,0,0,0,0,0,0,0,0,0,0,0,0,0,0,0,0,0,0,0,0,0,0,0,0,0,0,0,0,0,0,0,0,0,0,0,0,0,0,0,0,0,0,0,0,0,0,0,0,0,0,0,0,0,0,0,0,0,0,0,0,0,0,0,0,0],"trees":[{"base_weights":[-8.550026E-3,1.1707827E0,-2.1248442E-1,2.4129684E0,6.692606E-1,4.951642E-1,-4.4255823E-1,3.381402E0,1.9591063E0,1.421213E0,4.1894928E-1,9.2811984E-1,-5.928771E-2,-1.8761563E-1,-6.162791E-1,3.8614127E-1,2.0645744E-1,2.5880834E-1,1.5121223E-1,1.7640595E-1,5.7508994E-2,5.9575737E-2,-3.6480324E-3,1.6925892E-1,5.875255E-2,-2.8193332E-2,2.2938088E-2,1.2884852E-2,-3.2560684E-2,-4.670174E-2,-6.880956E-2],"categories":[],"categories_nodes":[],"categories_segments":[],"categories_sizes":[],"default_left":[0,1,0,0,0,1,1,0,0,0,0,0,1,0,1,0,0,0,0,0,0,0,0,0,0,0,0,0,0,0,0],"id":0,"left_children":[1,3,5,7,9,11,13,15,17,19,21,23,25,27,29,-1,-1,-1,-1,-1,-1,-1,-1,-1,-1,-1,-1,-1,-1,-1,-1],"loss_changes":[3.0745E3,1.1538994E3,1.7776171E3,1.7251855E2,2.457771E2,6.453222E2,3.6200342E2,5.151477E1,6.3409058E1,1.06375916E2,1.0191411E2,3.8379724E2,8.615228E1,1.724296E2,6.1311768E1,0E0,0E0,0E0,0E0,0E0,0E0,0E0,0E0,0E0,0E0,0E0,0E0,0E0,0E0,0E0,0E0],"parents":[2147483647,0,0,1,1,2,2,3,3,4,4,5,5,6,6,7,7,8,8,9,9,10,10,11,11,12,12,13,13,14,14],"right_children":[2,4,6,8,10,12,14,16,18,20,22,24,26,28,30,-1,-1,-1,-1,-1,-1,-1,-1,-1,-1,-1,-1,-1,-1,-1,-1],"split_conditions":[3.1703177E-1,3.7757787E-1,3.982179E-1,1.4517038E-1,1.5008518E-1,5.2629495E-1,4.6865967E-1,2.1518241E-1,1.5008518E-1,6.27464E-1,6.5302765E-1,1.5967923E-1,1.1385978E0,5.6121767E-1,6.2305754E-1,3.8614127E-1,2.0645744E-1,2.5880834E-1,1.5121223E-1,1.7640595E-1,5.7508994E-2,5.9575737E-2,-3.6480324E-3,1.6925892E-1,5.875255E-2,-2.8193332E-2,2.2938088E-2,1.2884852E-2,-3.2560684E-2,-4.670174E-2,-6.880956E-2],"split_indices":[14,13,13,13,14,14,14,14,14,13,13,13,7,13,13,0,0,0,0,0,0,0,0,0,0,0,0,0,0,0,0],"split_type":[0,0,0,0,0,0,0,0,0,0,0,0,0,0,0,0,0,0,0,0,0,0,0,0,0,0,0,0,0,0,0],"sum_hessian":[1.277793E4,1.8767155E3,1.0901214E4,5.2999994E2,1.3467156E3,2.6698345E3,8.23138E3,1.5170213E2,3.782978E2,3.2494897E2,1.02176654E3,1.498828E3,1.1710065E3,3.3481167E3,4.883263E3,8.20067E1,6.9695435E1,9.9789635E1,2.7850815E2,2.00742E2,1.2420698E2,6.992114E2,3.225551E2,3.7843457E2,1.1203934E3,6.5803705E2,5.1296936E2,1.0905044E3,2.2576123E3,2.3922153E3,2.4910476E3],"tree_param":{"num_deleted":"0","num_feature":"100","num_nodes":"31","size_leaf_vector":"1"}},{"base_weights":[5.439619E-3,6.76084E-1,-2.8427437E-1,1.1419029E0,-1.1342634E-2,7.544442E-1,-4.0236896E-1,2.0291543E0,8.8713324E-1,6.0532486E-1,-1.4971791E-1,3.5089144E-1,1.1434108E0,-1.8294677E-1,-6.1463016E-1,2.1335177E-1,6.6361606E-2,1.6378672E-1,6.3083604E-2,3.2093804E-2,1.0033003E-1,-3.2826513E-2,1.21799335E-2,9.041253E-2,1.1243332E-2,1.257502E-1,-0E0,5.550947E-2,-2.3377229E-2,-1.4559913E-2,-6.0523704E-2],"categories":[],"categories_nodes":[],"categories_segments":[],"categories_sizes":[],"default_left":[0,1,0,0,0,1,1,1,0,0,0,0,0,0,0,0,0,0,0,0,0,0,0,0,0,0,0,0,0,0,0],"id":1,"left_children":[1,3,5,7,9,11,13,15,17,19,21,23,25,27,29,-1,-1,-1,-1,-1,-1,-1,-1,-1,-1,-1,-1,-1,-1,-1,-1],"loss_changes":[2.495477E3,1.2439828E3,1.100907E3,5.0172046E2,1.3359041E2,1.3691003E2,3.723186E2,1.374419E2,3.2111804E2,2.8495079E1,7.238668E1,6.1695583E1,9.850482E1,1.9957346E2,4.833606E1,0E0,0E0,0E0,0E0,0E0,0E0,0E0,0E0,0E0,0E0,0E0,0E0,0E0,0E0,0E0,0E0],"parents":[2147483647,0,0,1,1,2,2,3,3,4,4,5,5,6,6,7,7,8,8,9,9,10,10,11,11,12,12,13,13,14,14],"right_children":[2,4,6,8,10,12,14,16,18,20,22,24,26,28,30,-1,-1,-1,-1,-1,-1,-1,-1,-1,-1,-1,-1,-1,-1,-1,-1],"split_conditions":[4.2836785E-1,4.758499E-1,2.6224896E-1,1.3659975E-1,1.5426542E-1,5.4013334E-2,5.0468135E-1,3.954347E-1,2.4451639E-1,2.0018868E0,1.3057699E0,1.2850438E-1,9.6454546E-2,2.784429E-1,2.9997355E-1,2.1335177E-1,6.6361606E-2,1.6378672E-1,6.3083604E-2,3.2093804E-2,1.0033003E-1,-3.2826513E-2,1.21799335E-2,9.041253E-2,1.1243332E-2,1.257502E-1,-0E0,5.550947E-2,-2.3377229E-2,-1.4559913E-2,-6.0523704E-2],"split_indices":[13,14,14,13,13,3,14,12,14,17,17,14,2,12,12,0,0,0,0,0,0,0,0,0,0,0,0,0,0,0,0],"split_type":[0,0,0,0,0,0,0,0,0,0,0,0,0,0,0,0,0,0,0,0,0,0,0,0,0,0,0,0,0,0,0],"sum_hessian":[1.2823564E4,3.8680652E3,8.955499E3,2.3048477E3,1.5632175E3,9.078825E2,8.047617E3,5.001653E2,1.8046824E3,2.7846655E2,1.284751E3,4.5584918E2,4.5203333E2,3.9698252E3,4.0777917E3,4.1913943E2,8.102586E1,3.5557217E2,1.4491102E3,1.8834444E2,9.012212E1,7.548653E2,5.298856E2,1.16220184E2,3.39629E2,3.8574533E2,6.6288E1,3.004602E2,3.669365E3,2.3526903E2,3.8425227E3],"tree_param":{"num_deleted":"0","num_feature":"100","num_nodes":"31","size_leaf_vector":"1"}},{"base_weights":[7.53721E-3,6.083899E-1,-2.4728851E-1,1.021595E0,8.3854795E-2,4.7266808E-1,-3.9931238E-1,6.669449E-1,1.5057516E0,2.3035422E-1,-3.824331E-1,6.3225955E-1,-1.720987E-1,-1.9171946E-1,-5.7903296E-1,1.0052478E-1,3.718968E-2,8.364197E-2,1.7563336E-1,5.653514E-2,-2.0186005E-3,2.2307996E-2,-4.0183373E-2,3.4364518E-2,9.4576135E-2,4.6111504E-3,-4.0119633E-2,2.4624702E-3,-3.926704E-2,4.9815616E-3,-5.7101257E-2],"categories":[],"categories_nodes":[],"categories_segments":[],"categories_sizes":[],"default_left":[0,1,0,1,1,1,1,0,0,0,0,1,0,0,0,0,0,0,0,0,0,0,0,0,0,0,0,0,0,0,0],"id":2,"left_children":[1,3,5,7,9,11,13,15,17,19,21,23,25,27,29,-1,-1,-1,-1,-1,-1,-1,-1,-1,-1,-1,-1,-1,-1,-1,-1],"loss_changes":[1.9729515E3,8.2855005E2,9.9082806E2,3.5502002E2,1.16580444E2,1.6424207E2,2.759967E2,1.2954407E2,1.7860913E2,1.22754745E2,1.2211014E1,1.1975549E2,1.8777706E1,1.716169E2,6.844714E1,0E0,0E0,0E0,0E0,0E0,0E0,0E0,0E0,0E0,0E0,0E0,0E0,0E0,0E0,0E0,0E0],"parents":[2147483647,0,0,1,1,2,2,3,3,4,4,5,5,6,6,7,7,8,8,9,9,10,10,11,11,12,12,13,13,14,14],"right_children":[2,4,6,8,10,12,14,16,18,20,22,24,26,28,30,-1,-1,-1,-1,-1,-1,-1,-1,-1,-1,-1,-1,-1,-1,-1,-1],"split_conditions":[4.0989107E-1,4.258929E-1,3.360615E-1,1.1584E0,3.9281946E-1,5.438159E-1,5.0468135E-1,3.360615E-1,4.6505813E-2,5.726825E-1,9.082647E-1,1.1452011E0,6.303271E-1,6.1866164E-1,2.4971429E-1,1.0052478E-1,3.718968E-2,8.364197E-2,1.7563336E-1,5.653514E-2,-2.0186005E-3,2.2307996E-2,-4.0183373E-2,3.4364518E-2,9.4576135E-2,4.6111504E-3,-4.0119633E-2,2.4624702E-3,-3.926704E-2,4.9815616E-3,-5.7101257E-2],"split_indices":[13,14,14,7,12,12,14,14,2,14,57,7,13,13,12,0,0,0,0,0,0,0,0,0,0,0,0,0,0,0,0],"split_type":[0,0,0,0,0,0,0,0,0,0,0,0,0,0,0,0,0,0,0,0,0,0,0,0,0,0,0,0,0,0,0],"sum_hessian":[1.2864624E4,3.8309363E3,9.0336875E3,2.1361726E3,1.6947637E3,1.5692933E3,7.4643945E3,1.2464193E3,8.8975323E2,1.2966101E3,3.9815353E2,1.2611624E3,3.0813098E2,3.4773765E3,3.987018E3,4.931596E2,7.532597E2,3.3760007E2,5.521532E2,5.255051E2,7.7110504E2,2.024924E1,3.779043E2,7.447675E2,5.163948E2,1.6257196E2,1.45559E2,1.7633218E3,1.7140547E3,1.5622401E2,3.830794E3],"tree_param":{"num_deleted":"0","num_feature":"100","num_nodes":"31","size_leaf_vector":"1"}},{"base_weights":[-7.953967E-3,-1.8579365E-1,2.9600558E-1,-2.5081936E-1,2.3598802E-1,-4.3886755E-2,6.0555243E-1,-4.627047E-1,-1.5464585E-1,1.5625219E-1,1.2149385E0,-8.675777E-2,8.9549214E-1,2.553148E-1,8.3215094E-1,4.285311E-3,-4.8105545E-2,-5.666207E-4,-3.130064E-2,-6.761183E-3,3.523145E-2,1.3555741E-1,-0E0,-1.4629387E-2,2.0292105E-2,1.034367E-1,-0E0,-2.1216627E-3,5.204426E-2,-0E0,8.872433E-2],"categories":[],"categories_nodes":[],"categories_segments":[],"categories_sizes":[],"default_left":[0,1,1,0,1,1,0,0,0,0,0,0,0,1,0,0,0,0,0,0,0,0,0,0,0,0,0,0,0,0,0],"id":3,"left_children":[1,3,5,7,9,11,13,15,17,19,21,23,25,27,29,-1,-1,-1,-1,-1,-1,-1,-1,-1,-1,-1,-1,-1,-1,-1,-1],"loss_changes":[6.942132E2,2.2292624E2,5.0001294E2,1.4128412E2,7.9590866E1,8.962749E1,1.9276807E2,5.396924E1,1.2716335E2,5.1083485E1,2.367006E1,4.4942028E1,1.9792786E1,8.30641E1,1.3565881E2,0E0,0E0,0E0,0E0,0E0,0E0,0E0,0E0,0E0,0E0,0E0,0E0,0E0,0E0,0E0,0E0],"parents":[2147483647,0,0,1,1,2,2,3,3,4,4,5,5,6,6,7,7,8,8,9,9,10,10,11,11,12,12,13,13,14,14],"right_children":[2,4,6,8,10,12,14,16,18,20,22,24,26,28,30,-1,-1,-1,-1,-1,-1,-1,-1,-1,-1,-1,-1,-1,-1,-1,-1],"split_conditions":[1.1584E0,3.20524E-1,4.6613924E-2,-5.52E2,5.4173267E-1,6.392027E-1,1.265747E1,1.4713362E0,9.367124E0,-5.9E2,2.0393991E-1,2E0,1.04E1,1.264E0,1E0,4.285311E-3,-4.8105545E-2,-5.666207E-4,-3.130064E-2,-6.761183E-3,3.523145E-2,1.3555741E-1,-0E0,-1.4629387E-2,2.0292105E-2,1.034367E-1,-0E0,-2.1216627E-3,5.204426E-2,-0E0,8.872433E-2],"split_indices":[7,33,2,46,73,73,98,53,15,46,94,21,25,7,22,0,0,0,0,0,0,0,0,0,0,0,0,0,0,0,0],"split_type":[0,0,0,0,0,0,0,0,0,0,0,0,0,0,0,0,0,0,0,0,0,0,0,0,0,0,0,0,0,0,0],"sum_hessian":[1.2832216E4,8.102704E3,4.729511E3,7.028193E3,1.0745111E3,2.2535198E3,2.4759915E3,2.1769658E3,4.851227E3,1.00410767E3,7.040343E1,2.1643171E3,8.92026E1,9.833404E2,1.4926511E3,1.8130125E2,1.9956647E3,2.6506677E3,2.2005593E3,4.869671E2,5.1714056E2,5.9574787E1,1.082864E1,1.7744774E3,3.8983966E2,7.337144E1,1.5831164E1,5.0699692E2,4.7634348E2,1.7335397E2,1.3192971E3],"tree_param":{"num_deleted":"0","num_feature":"100","num_nodes":"31","size_leaf_vector":"1"}},{"base_weights":[-3.8629278E-4,7.307715E-1,-1.6453595E-1,9.1343075E-1,1.6972888E-1,8.955689E-2,-3.921607E-1,1.4505498E0,7.11782E-1,7.309158E-1,6.0635284E-2,2.4917834E-1,-4.0232965E-1,-2.294282E-1,-5.3604454E-1,1.0284147E-1,1.7412516E-1,5.0794486E-2,1.0946594E-1,-0E0,8.6002454E-2,1.736669E-2,-2.2544587E-2,4.3315332E-2,-9.991517E-3,8.100807E-3,-4.2388853E-2,-8.5326005E-3,-5.162787E-2,-1.4646611E-2,-5.4292604E-2],"categories":[],"categories_nodes":[],"categories_segments":[],"categories_sizes":[],"default_left":[0,1,1,0,0,1,0,1,1,0,0,0,0,1,0,0,0,0,0,0,0,0,0,0,0,0,0,0,0,0,0],"id":4,"left_children":[1,3,5,7,9,11,13,15,17,19,21,23,25,27,29,-1,-1,-1,-1,-1,-1,-1,-1,-1,-1,-1,-1,-1,-1,-1,-1],"loss_changes":[1.5380795E3,2.3683154E2,6.070542E2,1.7810779E2,3.3780403E1,3.8920328E2,1.2671301E2,4.453546E1,9.229071E1,1.2195766E1,1.891864E1,2.809147E2,2.912181E1,1.137238E2,4.1647034E1,0E0,0E0,0E0,0E0,0E0,0E0,0E0,0E0,0E0,0E0,0E0,0E0,0E0,0E0,0E0,0E0],"parents":[2147483647,0,0,1,1,2,2,3,3,4,4,5,5,6,6,7,7,8,8,9,9,10,10,11,11,12,12,13,13,14,14],"right_children":[2,4,6,8,10,12,14,16,18,20,22,24,26,28,30,-1,-1,-1,-1,-1,-1,-1,-1,-1,-1,-1,-1,-1,-1,-1,-1],"split_conditions":[3.1703177E-1,4.061846E-1,4.758499E-1,1.4375806E-1,1.1319635E-1,4.1964287E-1,1.6912328E-1,1.1584E0,1.2112E0,1.37E2,6.9467145E-1,1.9636934E-1,2.1526958E-1,4.1406256E-1,9.941208E-1,1.0284147E-1,1.7412516E-1,5.0794486E-2,1.0946594E-1,-0E0,8.6002454E-2,1.736669E-2,-2.2544587E-2,4.3315332E-2,-9.991517E-3,8.100807E-3,-4.2388853E-2,-8.5326005E-3,-5.162787E-2,-1.4646611E-2,-5.4292604E-2],"split_indices":[14,12,14,14,14,12,11,7,7,38,12,11,51,12,57,0,0,0,0,0,0,0,0,0,0,0,0,0,0,0,0],"split_type":[0,0,0,0,0,0,0,0,0,0,0,0,0,0,0,0,0,0,0,0,0,0,0,0,0,0,0,0,0,0,0],"sum_hessian":[1.2811844E4,2.3413687E3,1.0470475E4,1.759338E3,5.820307E2,4.9445713E3,5.525904E3,4.6396323E2,1.2953748E3,8.393615E1,4.9809457E2,3.739813E3,1.2047583E3,2.6105332E3,2.9153706E3,2.612682E2,2.0269505E2,9.509615E2,3.4441327E2,1.8078552E1,6.58576E1,3.607114E2,1.3738316E2,2.3525508E3,1.3872625E3,1.0090651E2,1.1038518E3,1.8290735E3,7.8145966E2,2.8463992E2,2.6307307E3],"tree_param":{"num_deleted":"0","num_feature":"100","num_nodes":"31","size_leaf_vector":"1"}},{"base_weights":[-1.5563645E-2,5.7472515E-1,-1.9919194E-1,8.7940526E-1,1.733848E-1,3.1992567E-1,-3.3703646E-1,1.073153E0,2.4287456E-1,7.695853E-1,4.9236763E-2,4.810583E-1,-7.208435E-2,-1.6288576E-1,-5.3395313E-1,1.227127E-1,6.326456E-2,7.916574E-2,-1.1295743E-3,-0E0,8.006512E-2,1.9588908E-2,-2.2527512E-2,6.923912E-2,2.2342037E-2,-0E0,-5.2117035E-2,3.2394486E-3,-3.384895E-2,-3.5408355E-2,-5.9616674E-2],"categories":[],"categories_nodes":[],"categories_segments":[],"categories_sizes":[],"default_left":[0,0,0,1,0,0,1,1,0,0,1,0,1,1,1,0,0,0,0,0,0,0,0,0,0,0,0,0,0,0,0],"id":5,"left_children":[1,3,5,7,9,11,13,15,17,19,21,23,25,27,29,-1,-1,-1,-1,-1,-1,-1,-1,-1,-1,-1,-1,-1,-1,-1,-1],"loss_changes":[1.3902279E3,3.681878E2,7.015486E2,2.0731909E2,9.579464E1,1.3107042E2,2.6319055E2,1.0921326E2,6.5264786E1,1.4776596E1,5.0936066E1,8.658432E1,2.111551E1,1.6051945E2,5.209839E1,0E0,0E0,0E0,0E0,0E0,0E0,0E0,0E0,0E0,0E0,0E0,0E0,0E0,0E0,0E0,0E0],"parents":[2147483647,0,0,1,1,2,2,3,3,4,4,5,5,6,6,7,7,8,8,9,9,10,10,11,11,12,12,13,13,14,14],"right_children":[2,4,6,8,10,12,14,16,18,20,22,24,26,28,30,-1,-1,-1,-1,-1,-1,-1,-1,-1,-1,-1,-1,-1,-1,-1,-1],"split_conditions":[3.3577636E-1,1.6341974E-1,3.457848E-1,3.150375E-1,2.9109737E-1,6.488789E-1,5.3527623E-1,3.8591468E-1,3.457848E-1,-3.89E2,5.726825E-1,2.2508687E-1,6.703232E-1,5.9380996E-1,5.773662E-1,1.227127E-1,6.326456E-2,7.916574E-2,-1.1295743E-3,-0E0,8.006512E-2,1.9588908E-2,-2.2527512E-2,6.923912E-2,2.2342037E-2,-0E0,-5.2117035E-2,3.2394486E-3,-3.384895E-2,-3.5408355E-2,-5.9616674E-2],"split_indices":[13,11,14,12,14,13,14,14,14,38,14,14,12,13,13,0,0,0,0,0,0,0,0,0,0,0,0,0,0,0,0],"split_type":[0,0,0,0,0,0,0,0,0,0,0,0,0,0,0,0,0,0,0,0,0,0,0,0,0,0,0,0,0,0,0],"sum_hessian":[1.2818746E4,3.0344404E3,9.784306E3,1.7162426E3,1.318198E3,2.0470348E3,7.7372715E3,1.3087361E3,4.0750647E2,2.168907E2,1.1013073E3,1.4540255E3,5.930093E2,4.120111E3,3.6171606E3,8.203576E2,4.8837848E2,1.19686516E2,2.8781995E2,1.9542969E1,1.9734773E2,7.1746423E2,3.83843E2,7.0129694E2,7.527285E2,5.2126636E2,7.174289E1,2.050609E3,2.069502E3,1.4078734E3,2.209287E3],"tree_param":{"num_deleted":"0","num_feature":"100","num_nodes":"31","size_leaf_vector":"1"}},{"base_weights":[-9.214592E-3,2.3507375E-1,-3.15368E-1,3.6050344E-1,-2.1699162E-1,-2.209191E-1,-5.8167255E-1,7.2289103E-1,2.2502255E-1,2.2659145E-1,-3.3503658E-1,-4.566696E-2,-3.814394E-1,-6.223407E-1,-2.9632092E-1,1.05511345E-1,5.558261E-2,9.27539E-2,1.6396442E-2,-3.266016E-2,3.5257056E-2,4.0660747E-3,-3.892165E-2,-1.7292656E-2,1.5200239E-2,-4.7243163E-2,-1.9753829E-2,-6.0534254E-2,-1.3271768E-2,-4.4607628E-2,1.0758145E-2],"categories":[],"categories_nodes":[],"categories_segments":[],"categories_sizes":[],"default_left":[1,1,1,0,0,0,0,0,0,0,0,1,1,1,1,0,0,0,0,0,0,0,0,0,0,0,0,0,0,0,0],"id":6,"left_children":[1,3,5,7,9,11,13,15,17,19,21,23,25,27,29,-1,-1,-1,-1,-1,-1,-1,-1,-1,-1,-1,-1,-1,-1,-1,-1],"loss_changes":[9.547247E2,4.0321368E2,1.3959131E2,2.6939465E2,8.155337E1,1.1705562E2,1.3385162E1,7.023761E1,1.5347423E2,2.8395369E1,3.7045517E1,5.798311E1,4.2349213E1,9.363007E0,1.6239698E1,0E0,0E0,0E0,0E0,0E0,0E0,0E0,0E0,0E0,0E0,0E0,0E0,0E0,0E0,0E0,0E0],"parents":[2147483647,0,0,1,1,2,2,3,3,4,4,5,5,6,6,7,7,8,8,9,9,10,10,11,11,12,12,13,13,14,14],"right_children":[2,4,6,8,10,12,14,16,18,20,22,24,26,28,30,-1,-1,-1,-1,-1,-1,-1,-1,-1,-1,-1,-1,-1,-1,-1,-1],"split_conditions":[4.4717857E-1,4.4099247E-1,4.5686302E-1,2.6504943E-1,2.301589E-1,6.195277E-1,2E0,1.1319635E-1,1.9125423E-1,2.625804E-1,9.9999046E-1,1.1583962E0,1.1385978E0,1.2627E0,1.198E0,1.05511345E-1,5.558261E-2,9.27539E-2,1.6396442E-2,-3.266016E-2,3.5257056E-2,4.0660747E-3,-3.892165E-2,-1.7292656E-2,1.5200239E-2,-4.7243163E-2,-1.9753829E-2,-6.0534254E-2,-1.3271768E-2,-4.4607628E-2,1.0758145E-2],"split_indices":[14,12,12,14,14,14,22,14,12,33,57,7,7,90,7,0,0,0,0,0,0,0,0,0,0,0,0,0,0,0,0],"split_type":[0,0,0,0,0,0,0,0,0,0,0,0,0,0,0,0,0,0,0,0,0,0,0,0,0,0,0,0,0,0,0],"sum_hessian":[1.2747615E4,7.0866055E3,5.6610093E3,5.5529634E3,1.5336423E3,4.196116E3,1.4648931E3,1.4970763E3,4.055887E3,3.1641888E2,1.2172235E3,2.0181342E3,2.177982E3,1.266617E3,1.9827617E2,3.58563E2,1.1385133E3,2.4437828E2,3.8115088E3,5.912739E1,2.572915E2,2.0254346E2,1.01468E3,1.2193495E3,7.9878467E2,1.2677109E3,9.10271E2,1.2097303E3,5.688659E1,1.4205202E2,5.6224155E1],"tree_param":{"num_deleted":"0","num_feature":"100","num_nodes":"31","size_leaf_vector":"1"}},{"base_weights":[1.0053623E-3,3.4719908E-1,-2.5162232E-1,5.480972E-1,-3.34857E-2,2.1170624E-1,-3.6512366E-1,9.295722E-1,3.8053983E-1,4.1319495E-1,-1.512226E-1,3.3844814E-1,-1.6678536E-1,-2.4123494E-1,-5.711808E-1,1.02142684E-1,2.990744E-2,5.2753963E-2,1.5453486E-2,5.8351927E-2,-9.512622E-3,1.5806814E-3,-3.6018755E-2,5.7292305E-2,1.4346016E-2,-2.9422808E-2,1.0853238E-2,-1.0347755E-2,-4.086946E-2,-3.0062224E-3,-5.6698624E-2],"categories":[],"categories_nodes":[],"categories_segments":[],"categories_sizes":[],"default_left":[0,1,0,0,0,0,1,0,0,0,0,0,1,1,0,0,0,0,0,0,0,0,0,0,0,0,0,0,0,0,0],"id":7,"left_children":[1,3,5,7,9,11,13,15,17,19,21,23,25,27,29,-1,-1,-1,-1,-1,-1,-1,-1,-1,-1,-1,-1,-1,-1,-1,-1],"loss_changes":[1.115987E3,4.1336163E2,3.88616E2,2.1968811E2,9.782045E1,7.046023E1,1.4824835E2,9.4281494E1,9.323331E1,4.2597046E1,5.8508423E1,5.226439E1,1.5670367E1,9.235149E1,3.4135925E1,0E0,0E0,0E0,0E0,0E0,0E0,0E0,0E0,0E0,0E0,0E0,0E0,0E0,0E0,0E0,0E0],"parents":[2147483647,0,0,1,1,2,2,3,3,4,4,5,5,6,6,7,7,8,8,9,9,10,10,11,11,12,12,13,13,14,14],"right_children":[2,4,6,8,10,12,14,16,18,20,22,24,26,28,30,-1,-1,-1,-1,-1,-1,-1,-1,-1,-1,-1,-1,-1,-1,-1,-1],"split_conditions":[4.8707008E-1,4.7225335E-1,3.264752E-1,1.9421512E-1,1.7357393E-1,6.811956E-1,6.668458E-1,3.1192848E-1,1.3458905E-1,4.145115E-1,2.1874595E-1,1.8848953E-1,1.198E0,5.567274E-1,1.8890481E0,1.02142684E-1,2.990744E-2,5.2753963E-2,1.5453486E-2,5.8351927E-2,-9.512622E-3,1.5806814E-3,-3.6018755E-2,5.7292305E-2,1.4346016E-2,-2.9422808E-2,1.0853238E-2,-1.0347755E-2,-4.086946E-2,-3.0062224E-3,-5.6698624E-2],"split_indices":[13,14,14,13,13,13,13,11,11,11,11,14,7,14,53,0,0,0,0,0,0,0,0,0,0,0,0,0,0,0,0],"split_type":[0,0,0,0,0,0,0,0,0,0,0,0,0,0,0,0,0,0,0,0,0,0,0,0,0,0,0,0,0,0,0],"sum_hessian":[1.27423E4,5.3786333E3,7.363666E3,3.5227874E3,1.8558462E3,1.4432949E3,5.920371E3,1.0599868E3,2.4628005E3,3.7870926E2,1.477137E3,1.08679E3,3.5650488E2,3.7152812E3,2.2050898E3,8.3954767E2,2.204391E2,1.3361649E3,1.1266356E3,2.7289755E2,1.05811714E2,8.5259265E2,6.2454425E2,4.321072E2,6.5468286E2,2.4061214E2,1.1589275E2,2.2205303E3,1.4947512E3,1.2162968E2,2.0834602E3],"tree_param":{"num_deleted":"0","num_feature":"100","num_nodes":"31","size_leaf_vector":"1"}},{"base_weights":[-2.1411234E-3,2.4964699E-1,-2.9892907E-1,3.781032E-1,-1.657462E-1,7.742733E-3,-4.3780082E-1,7.235786E-1,2.5158566E-1,3.863733E-1,-2.4327804E-1,-9.368574E-2,4.3620408E-1,1.203723E-2,-4.7996113E-1,7.441797E-2,6.1508804E-3,9.177023E-3,4.426925E-2,-1.1713589E-2,5.70773E-2,-2.7810741E-2,2.1225443E-2,-2.5371386E-2,9.416432E-3,1.713778E-2,8.093369E-2,-1.3799909E-2,2.9780274E-2,5.7167586E-2,-4.6445906E-2],"categories":[],"categories_nodes":[],"categories_segments":[],"categories_sizes":[],"default_left":[1,1,0,0,0,1,0,0,0,0,0,1,1,0,0,0,0,0,0,0,0,0,0,0,0,0,0,0,0,0,0],"id":8,"left_children":[1,3,5,7,9,11,13,15,17,19,21,23,25,27,29,-1,-1,-1,-1,-1,-1,-1,-1,-1,-1,-1,-1,-1,-1,-1,-1],"loss_changes":[9.543283E2,3.693912E2,2.5089655E2,2.2695648E2,7.018967E1,8.0698456E1,7.7890625E1,5.814917E1,1.2868921E2,2.4109512E1,3.5478867E1,5.089949E1,3.448146E1,1.7554564E1,5.2468628E1,0E0,0E0,0E0,0E0,0E0,0E0,0E0,0E0,0E0,0E0,0E0,0E0,0E0,0E0,0E0,0E0],"parents":[2147483647,0,0,1,1,2,2,3,3,4,4,5,5,6,6,7,7,8,8,9,9,10,10,11,11,12,12,13,13,14,14],"right_children":[2,4,6,8,10,12,14,16,18,20,22,24,26,28,30,-1,-1,-1,-1,-1,-1,-1,-1,-1,-1,-1,-1,-1,-1,-1,-1],"split_conditions":[5.5153507E-1,5.726825E-1,4.3296167E-1,2.0607983E-1,1.5426542E-1,9.6316975E-1,3.2918578E-1,9.220367E-2,1.1583976E0,2.3663412E-1,1.3167967E0,1.132E0,1.1759969E0,1.909E-1,6.890413E-1,7.441797E-2,6.1508804E-3,9.177023E-3,4.426925E-2,-1.1713589E-2,5.70773E-2,-2.7810741E-2,2.1225443E-2,-2.5371386E-2,9.416432E-3,1.713778E-2,8.093369E-2,-1.3799909E-2,2.9780274E-2,5.7167586E-2,-4.6445906E-2],"split_indices":[13,14,14,13,13,37,12,2,7,17,7,7,90,4,53,0,0,0,0,0,0,0,0,0,0,0,0,0,0,0,0],"split_type":[0,0,0,0,0,0,0,0,0,0,0,0,0,0,0,0,0,0,0,0,0,0,0,0,0,0,0,0,0,0,0],"sum_hessian":[1.2753889E4,6.8961377E3,5.857751E3,5.272407E3,1.6237305E3,1.8224285E3,4.0353228E3,1.3983373E3,3.87407E3,1.9222945E2,1.4315011E3,1.4736738E3,3.4875455E2,3.4117313E2,3.6941497E3,1.2668741E3,1.3146313E2,2.281152E3,1.5929182E3,5.5235672E1,1.3699377E2,1.2967188E3,1.3478235E2,7.783853E2,6.952886E2,2.2805742E2,1.2069713E2,2.2142813E2,1.19744995E2,3.5823204E1,3.6583264E3],"tree_param":{"num_deleted":"0","num_feature":"100","num_nodes":"31","size_leaf_vector":"1"}},{"base_weights":[-1.0895368E-2,2.8306487E-1,-2.2023273E-1,4.217693E-1,-1.7376043E-2,2.8285405E-1,-3.062294E-1,5.29367E-1,-8.7263465E-2,6.948511E-1,-8.1629984E-2,3.7973696E-1,-1.4831197E-1,-1.8418606E-1,-4.9463937E-1,2.5449717E-2,6.569011E-2,1.4152803E-2,-2.2187743E-2,-0E0,8.2952105E-2,2.410475E-2,-2.0273512E-2,4.7780488E-2,-5.389612E-3,-3.340697E-2,7.3747565E-3,-3.2451592E-2,-0E0,-8.458328E-3,-4.956696E-2],"categories":[],"categories_nodes":[],"categories_segments":[],"categories_sizes":[],"default_left":[1,0,0,1,0,0,1,1,0,0,0,0,1,0,0,0,0,0,0,0,0,0,0,0,0,0,0,0,0,0,0],"id":9,"left_children":[1,3,5,7,9,11,13,15,17,19,21,23,25,27,29,-1,-1,-1,-1,-1,-1,-1,-1,-1,-1,-1,-1,-1,-1,-1,-1],"loss_changes":[7.8376416E2,2.2167068E2,3.2282654E2,2.0014996E2,7.548807E1,4.639759E1,1.4399426E2,1.2631891E2,2.280682E1,1.651513E1,6.980537E1,5.092813E1,1.0235706E1,1.1487508E2,2.9332642E1,0E0,0E0,0E0,0E0,0E0,0E0,0E0,0E0,0E0,0E0,0E0,0E0,0E0,0E0,0E0,0E0],"parents":[2147483647,0,0,1,1,2,2,3,3,4,4,5,5,6,6,7,7,8,8,9,9,10,10,11,11,12,12,13,13,14,14],"right_children":[2,4,6,8,10,12,14,16,18,20,22,24,26,28,30,-1,-1,-1,-1,-1,-1,-1,-1,-1,-1,-1,-1,-1,-1,-1,-1],"split_conditions":[4.6452677E-1,2.295239E-1,2.6224896E-1,4.1692203E-1,2.1526958E-1,6.941106E-1,5.495965E-1,5.135E-2,4.1184855E-1,2.3767091E-2,4.0835884E-1,2.798397E-1,5.558E-2,5.4013334E-2,9.731074E-1,2.5449717E-2,6.569011E-2,1.4152803E-2,-2.2187743E-2,-0E0,8.2952105E-2,2.410475E-2,-2.0273512E-2,4.7780488E-2,-5.389612E-3,-3.340697E-2,7.3747565E-3,-3.2451592E-2,-0E0,-8.458328E-3,-4.956696E-2],"split_indices":[13,11,14,12,51,13,14,3,14,61,14,11,3,3,57,0,0,0,0,0,0,0,0,0,0,0,0,0,0,0,0],"split_type":[0,0,0,0,0,0,0,0,0,0,0,0,0,0,0,0,0,0,0,0,0,0,0,0,0,0,0,0,0,0,0],"sum_hessian":[1.2723735E4,5.286115E3,7.43762E3,3.6200886E3,1.6660267E3,1.0789805E3,6.3586396E3,2.9922163E3,6.2787225E2,1.2846025E2,1.5375664E3,8.8649756E2,1.9248294E2,3.8761692E3,2.4824705E3,1.1862246E3,1.8059917E3,2.3463167E2,3.9324057E2,2.9818623E1,9.8641624E1,4.2840668E2,1.1091598E3,6.904202E2,1.9607733E2,1.0436075E2,8.812219E1,2.0750974E3,1.8010718E3,1.8423235E2,2.2982383E3],"tree_param":{"num_deleted":"0","num_feature":"100","num_nodes":"31","size_leaf_vector":"1"}},{"base_weights":[-2.1210094E-3,2.0978662E-1,-2.6291543E-1,3.3566E-1,-8.569088E-2,5.4214474E-2,-3.8342467E-1,7.681478E-1,2.6756442E-1,2.2362548E-1,-1.9129619E-1,-1.14964865E-1,2.906925E-1,2.4283566E-2,-4.3057337E-1,1.1629746E-1,6.322652E-2,5.643486E-2,1.731916E-2,-0E0,3.9885752E-2,-4.304137E-3,-3.7050255E-2,6.219635E-3,-3.3104543E-2,7.436928E-2,1.8338572E-2,-1.9557394E-2,2.9274642E-2,-5.0531287E-2,-2.5117012E-2],"categories":[],"categories_nodes":[],"categories_segments":[],"categories_sizes":[],"default_left":[0,1,0,0,0,1,0,0,0,0,0,1,0,0,0,0,0,0,0,0,0,0,0,0,0,0,0,0,0,0,0],"id":10,"left_children":[1,3,5,7,9,11,13,15,17,19,21,23,25,27,29,-1,-1,-1,-1,-1,-1,-1,-1,-1,-1,-1,-1,-1,-1,-1,-1],"loss_changes":[7.015909E2,2.6110007E2,2.1864044E2,1.4057977E2,6.8532814E1,6.3474323E1,8.055829E1,1.8904663E1,1.1555536E2,2.380886E1,4.482312E1,3.9930183E1,2.8128784E1,2.9265736E1,6.1062805E1,0E0,0E0,0E0,0E0,0E0,0E0,0E0,0E0,0E0,0E0,0E0,0E0,0E0,0E0,0E0,0E0],"parents":[2147483647,0,0,1,1,2,2,3,3,4,4,5,5,6,6,7,7,8,8,9,9,10,10,11,11,12,12,13,13,14,14],"right_children":[2,4,6,8,10,12,14,16,18,20,22,24,26,28,30,-1,-1,-1,-1,-1,-1,-1,-1,-1,-1,-1,-1,-1,-1,-1,-1],"split_conditions":[5.4961413E-1,5.08287E-1,3.893388E-1,1.0685776E-1,2.3273839E-1,1.1452011E0,9.929715E-1,2.4135667E-1,2.2508687E-1,1.003762E0,2.2143242E-1,6.557329E-1,2.301763E-1,5.873E-2,1.1385978E0,1.1629746E-1,6.322652E-2,5.643486E-2,1.731916E-2,-0E0,3.9885752E-2,-4.304137E-3,-3.7050255E-2,6.219635E-3,-3.3104543E-2,7.436928E-2,1.8338572E-2,-1.9557394E-2,2.9274642E-2,-5.0531287E-2,-2.5117012E-2],"split_indices":[13,14,14,13,13,7,57,51,14,17,11,13,51,3,7,0,0,0,0,0,0,0,0,0,0,0,0,0,0,0,0],"split_type":[0,0,0,0,0,0,0,0,0,0,0,0,0,0,0,0,0,0,0,0,0,0,0,0,0,0,0,0,0,0,0],"sum_hessian":[1.2677572E4,6.9898687E3,5.6877036E3,4.9069463E3,2.0829226E3,1.5616116E3,4.1260923E3,6.518616E2,4.255085E3,5.219456E2,1.5609769E3,9.0645105E2,6.5516046E2,4.2257443E2,3.7035178E3,9.3350784E1,5.585108E2,8.453227E2,3.4097622E3,2.4842453E2,2.7352112E2,9.1883417E2,6.421427E2,5.102802E2,3.961708E2,9.302835E1,5.6213214E2,2.2983873E2,1.9273572E2,2.2371443E3,1.4663735E3],"tree_param":{"num_deleted":"0","num_feature":"100","num_nodes":"31","size_leaf_vector":"1"}},{"base_weights":[-5.1951567E-3,3.1542557E-1,-1.4589924E-1,7.964598E-1,2.3619865E-1,8.955865E-3,-3.7126434E-1,2.3931187E-1,8.91145E-1,6.8903975E-2,4.479737E-1,8.130249E-1,-2.5289437E-2,-2.5406778E-1,-5.56838E-1,-2.7947243E-2,3.99357E-2,8.42926E-3,9.024954E-2,-0E0,5.076812E-2,5.0243232E-2,-4.090514E-4,9.413033E-2,1.6657658E-2,4.8377565E-3,-3.105482E-2,-6.905517E-3,-3.9583843E-2,-2.2040273E-3,-5.5106714E-2],"categories":[],"categories_nodes":[],"categories_segments":[],"categories_sizes":[],"default_left":[1,0,1,0,1,0,0,0,0,1,1,1,1,0,0,0,0,0,0,0,0,0,0,0,0,0,0,0,0,0,0],"id":11,"left_children":[1,3,5,7,9,11,13,15,17,19,21,23,25,27,29,-1,-1,-1,-1,-1,-1,-1,-1,-1,-1,-1,-1,-1,-1,-1,-1],"loss_changes":[5.6956616E2,1.4264328E2,3.075695E2,2.385025E1,1.16071686E2,1.4555466E2,7.486847E1,1.0366817E1,2.0597198E1,5.9949104E1,5.7229004E1,2.1166412E1,1.1725635E2,6.504085E1,1.8532715E1,0E0,0E0,0E0,0E0,0E0,0E0,0E0,0E0,0E0,0E0,0E0,0E0,0E0,0E0,0E0,0E0],"parents":[2147483647,0,0,1,1,2,2,3,3,4,4,5,5,6,6,7,7,8,8,9,9,10,10,11,11,12,12,13,13,14,14],"right_children":[2,4,6,8,10,12,14,16,18,20,22,24,26,28,30,-1,-1,-1,-1,-1,-1,-1,-1,-1,-1,-1,-1,-1,-1,-1,-1],"split_conditions":[3.5677496E-1,6.7954205E-2,4.6865967E-1,7.94078E-1,1.1584E0,1.731495E-1,6.459588E-1,1.38915E4,1.0845555E1,9.50175E-1,4.1964287E-1,8.8909835E-2,5.0702757E-1,1.6158727E-1,2.967408E-1,-2.7947243E-2,3.99357E-2,8.42926E-3,9.024954E-2,-0E0,5.076812E-2,5.0243232E-2,-4.090514E-4,9.413033E-2,1.6657658E-2,4.8377565E-3,-3.105482E-2,-6.905517E-3,-3.9583843E-2,-2.2040273E-3,-5.5106714E-2],"split_indices":[13,13,14,37,7,12,13,1,6,37,12,95,12,11,12,0,0,0,0,0,0,0,0,0,0,0,0,0,0,0,0],"split_type":[0,0,0,0,0,0,0,0,0,0,0,0,0,0,0,0,0,0,0,0,0,0,0,0,0,0,0,0,0,0,0],"sum_hessian":[1.2619455E4,3.840626E3,8.778829E3,5.2889606E2,3.31173E3,5.201158E3,3.5776704E3,8.4566666E1,4.443294E2,1.8624034E3,1.4493265E3,2.083845E2,4.992774E3,2.21214E3,1.3655304E3,1.6973148E1,6.759351E1,3.7979202E1,4.0635022E2,1.6325299E3,2.298735E2,1.2240023E3,2.253243E2,1.5502449E2,5.3360004E1,3.9865588E3,1.006215E3,1.0701555E3,1.1419845E3,7.213614E1,1.2933943E3],"tree_param":{"num_deleted":"0","num_feature":"100","num_nodes":"31","size_leaf_vector":"1"}},{"base_weights":[-9.977075E-3,-1.1831505E-1,2.0520145E-1,2.7141145E-1,-1.7179494E-1,3.891255E-1,-1.5291485E-2,1.9560423E-2,5.560976E-1,-4.5811933E-1,-1.0763242E-1,1.5133321E-1,6.124144E-1,-5.92531E-2,4.9058497E-1,-2.865452E-2,1.1211746E-2,1.9870024E-2,7.1216986E-2,1.8306447E-3,-4.527106E-2,-3.784099E-2,-5.56346E-3,2.272036E-2,-3.1036135E-2,8.0280356E-2,3.91732E-2,-1.8679682E-2,7.177074E-3,7.037876E-2,3.2871244E-3],"categories":[],"categories_nodes":[],"categories_segments":[],"categories_sizes":[],"default_left":[1,0,0,0,0,0,1,0,0,0,1,0,0,1,0,0,0,0,0,0,0,0,0,0,0,0,0,0,0,0,0],"id":12,"left_children":[1,3,5,7,9,11,13,15,17,19,21,23,25,27,29,-1,-1,-1,-1,-1,-1,-1,-1,-1,-1,-1,-1,-1,-1,-1,-1],"loss_changes":[2.9457596E2,1.7556122E2,1.7240625E2,7.111316E1,1.3438925E2,1.2009604E2,4.1920013E1,1.7483662E1,2.8732681E1,1.5341339E1,8.539651E1,4.922881E1,4.986267E1,3.389002E1,1.5334892E1,0E0,0E0,0E0,0E0,0E0,0E0,0E0,0E0,0E0,0E0,0E0,0E0,0E0,0E0,0E0,0E0],"parents":[2147483647,0,0,1,1,2,2,3,3,4,4,5,5,6,6,7,7,8,8,9,9,10,10,11,11,12,12,13,13,14,14],"right_children":[2,4,6,8,10,12,14,16,18,20,22,24,26,28,30,-1,-1,-1,-1,-1,-1,-1,-1,-1,-1,-1,-1,-1,-1,-1,-1],"split_conditions":[1.1716E0,9.9167794E-1,2.1452818E1,3.5721725E-1,1.8946058E-1,2.11095E4,1.1016401E4,2.0081301E-1,-1.291E3,1.5572481E0,1.0743802E1,1E0,2.7E0,2.4651E4,5.81E2,-2.865452E-2,1.1211746E-2,1.9870024E-2,7.1216986E-2,1.8306447E-3,-4.527106E-2,-3.784099E-2,-5.56346E-3,2.272036E-2,-3.1036135E-2,8.0280356E-2,3.91732E-2,-1.8679682E-2,7.177074E-3,7.037876E-2,3.2871244E-3],"split_indices":[7,57,6,33,33,1,80,17,96,53,6,99,25,1,27,0,0,0,0,0,0,0,0,0,0,0,0,0,0,0,0],"split_type":[0,0,0,0,0,0,0,0,0,0,0,0,0,0,0,0,0,0,0,0,0,0,0,0,0,0,0,0,0,0,0],"sum_hessian":[1.2630028E4,8.410548E3,4.2194805E3,1.00547675E3,7.405071E3,2.3035269E3,1.9159539E3,5.424855E2,4.6299127E2,1.3399274E3,6.0651436E3,1.1271462E3,1.1763806E3,1.7734999E3,1.42454E2,1.1786196E2,4.246235E2,1.7961845E2,2.8337283E2,5.3882305E1,1.286045E3,8.467027E2,5.218441E3,9.5757623E2,1.6956998E2,5.145326E2,6.61848E2,8.829206E2,8.905792E2,8.462492E1,5.7829063E1],"tree_param":{"num_deleted":"0","num_feature":"100","num_nodes":"31","size_leaf_vector":"1"}},{"base_weights":[-8.327559E-4,1.7229083E-1,-2.2967671E-1,2.558344E-1,-1.383143E-1,1.5089877E-2,-3.4254372E-1,8.672575E-1,2.1197471E-1,2.0701756E-1,-2.804004E-1,1.2476991E-1,-3.4736136E-1,1.7580627E-1,-3.788788E-1,9.907367E-2,5.2292063E-3,2.6506513E-2,-1.2348099E-2,1.0961282E-2,8.3561815E-2,-1.6714377E-2,-4.793477E-2,1.8144912E-3,4.8707683E-2,-4.699415E-2,-0E0,3.1195316E-2,-1.1752244E-2,-2.993866E-2,-5.7180107E-2],"categories":[],"categories_nodes":[],"categories_segments":[],"categories_sizes":[],"default_left":[1,1,0,0,0,1,0,0,0,1,0,1,0,1,0,0,0,0,0,0,0,0,0,0,0,0,0,0,0,0,0],"id":13,"left_children":[1,3,5,7,9,11,13,15,17,19,21,23,25,27,29,-1,-1,-1,-1,-1,-1,-1,-1,-1,-1,-1,-1,-1,-1,-1,-1],"loss_changes":[4.9852472E2,1.86241E2,1.50706E2,1.4735617E2,7.497434E1,6.783527E1,7.1071594E1,5.211331E1,1.2585974E2,2.3891613E1,2.3034882E1,5.336868E1,1.958162E1,1.2207269E1,4.4871094E1,0E0,0E0,0E0,0E0,0E0,0E0,0E0,0E0,0E0,0E0,0E0,0E0,0E0,0E0,0E0,0E0],"parents":[2147483647,0,0,1,1,2,2,3,3,4,4,5,5,6,6,7,7,8,8,9,9,10,10,11,11,12,12,13,13,14,14],"right_children":[2,4,6,8,10,12,14,16,18,20,22,24,26,28,30,-1,-1,-1,-1,-1,-1,-1,-1,-1,-1,-1,-1,-1,-1,-1,-1],"split_conditions":[5.4961413E-1,3.8747945E-1,4.1359675E-1,1.8555176E-1,3.539876E-1,4.8572648E-1,2.784429E-1,1.7233648E1,1E0,1.000805E0,6.812456E-1,9.6179646E-1,6.1765E-2,4.0352974E0,7.1785384E-1,9.907367E-2,5.2292063E-3,2.6506513E-2,-1.2348099E-2,1.0961282E-2,8.3561815E-2,-1.6714377E-2,-4.793477E-2,1.8144912E-3,4.8707683E-2,-4.699415E-2,-0E0,3.1195316E-2,-1.1752244E-2,-2.993866E-2,-5.7180107E-2],"split_indices":[13,12,14,51,14,12,12,53,99,37,12,37,3,53,13,0,0,0,0,0,0,0,0,0,0,0,0,0,0,0,0],"split_type":[0,0,0,0,0,0,0,0,0,0,0,0,0,0,0,0,0,0,0,0,0,0,0,0,0,0,0,0,0,0,0],"sum_hessian":[1.2564361E4,7.147854E3,5.416507E3,5.6402065E3,1.5076477E3,1.704499E3,3.7120078E3,3.641308E2,5.2760757E3,4.3334195E2,1.0743058E3,1.3176621E3,3.8683682E2,2.3673206E2,3.475276E3,2.927078E2,7.142301E1,4.398402E3,8.7767346E2,3.933545E2,3.9987457E1,7.564245E2,3.1788123E2,1.0493496E3,2.683126E2,2.6289615E2,1.2394064E2,1.6115433E2,7.5577736E1,2.7595386E3,7.157371E2],"tree_param":{"num_deleted":"0","num_feature":"100","num_nodes":"31","size_leaf_vector":"1"}},{"base_weights":[-8.443721E-3,8.758898E-2,-2.9770905E-1,1.5161477E-1,-3.3595067E-1,-1.2358195E-1,-3.9834192E-1,-8.581264E-3,2.903032E-1,3.6700577E-2,-4.1044128E-1,-2.9173163E-1,5.3273685E-2,-0E0,-4.256246E-1,2.3507012E-2,-8.307304E-3,3.6826264E-2,-2.0637328E-2,1.7654322E-2,-3.2606833E-2,-1.2025983E-2,-4.4689376E-2,3.74328E-2,-3.1812932E-2,1.8240923E-2,-3.705019E-2,-1.0372912E-2,6.044801E-2,-4.16434E-2,6.3614743E-3],"categories":[],"categories_nodes":[],"categories_segments":[],"categories_sizes":[],"default_left":[1,1,0,1,0,0,0,0,0,1,0,0,0,1,1,0,0,0,0,0,0,0,0,0,0,0,0,0,0,0,0],"id":14,"left_children":[1,3,5,7,9,11,13,15,17,19,21,23,25,27,29,-1,-1,-1,-1,-1,-1,-1,-1,-1,-1,-1,-1,-1,-1,-1,-1],"loss_changes":[3.503064E2,2.5611133E2,5.342514E1,1.8328464E2,3.541072E1,3.5566845E1,2.2309814E1,7.7914185E1,2.262143E2,1.2045969E1,1.666452E1,2.0007038E1,3.5744778E1,1.0698866E1,1.5788696E1,0E0,0E0,0E0,0E0,0E0,0E0,0E0,0E0,0E0,0E0,0E0,0E0,0E0,0E0,0E0,0E0],"parents":[2147483647,0,0,1,1,2,2,3,3,4,4,5,5,6,6,7,7,8,8,9,9,10,10,11,11,12,12,13,13,14,14],"right_children":[2,4,6,8,10,12,14,16,18,20,22,24,26,28,30,-1,-1,-1,-1,-1,-1,-1,-1,-1,-1,-1,-1,-1,-1,-1,-1],"split_conditions":[5.726825E-1,5.673134E-1,1.2069131E-1,5.3825E-2,2.301589E-1,5.3542856E-2,9.1946924E-1,2.707074E-1,9.307692E-2,7.187051E-2,6.0770076E-2,2.4971429E-1,9.307692E-2,-2.78E2,9E3,2.3507012E-2,-8.307304E-3,3.6826264E-2,-2.0637328E-2,1.7654322E-2,-3.2606833E-2,-1.2025983E-2,-4.4689376E-2,3.74328E-2,-3.1812932E-2,1.8240923E-2,-3.705019E-2,-1.0372912E-2,6.044801E-2,-4.16434E-2,6.3614743E-3],"split_indices":[14,12,11,3,14,3,57,14,2,95,95,12,2,96,63,0,0,0,0,0,0,0,0,0,0,0,0,0,0,0,0],"split_type":[0,0,0,0,0,0,0,0,0,0,0,0,0,0,0,0,0,0,0,0,0,0,0,0,0,0,0,0,0,0,0],"sum_hessian":[1.2576821E4,9.439628E3,3.1371934E3,8.209419E3,1.2302087E3,1.1643403E3,1.972853E3,3.804275E3,4.4051445E3,1.9998932E2,1.0302195E3,6.0158185E2,5.627584E2,1.22607056E2,1.850246E3,8.853506E2,2.9189243E3,3.6863206E3,7.1882367E2,1.5099823E2,4.8991093E1,2.001422E2,8.300773E2,3.0321629E1,5.712602E2,4.3578342E2,1.2697501E2,1.0756954E2,1.5037515E1,1.7979027E3,5.2343277E1],"tree_param":{"num_deleted":"0","num_feature":"100","num_nodes":"31","size_leaf_vector":"1"}},{"base_weights":[-9.409761E-3,3.364244E-1,-1.0509663E-1,4.0579122E-1,-1.5262181E-2,6.1390316E-1,-1.3439122E-1,5.075151E-1,1.1618101E-1,2.084448E-1,-2.0165822E-1,-0E0,7.3919904E-1,-5.625909E-2,-3.6932614E-1,5.585352E-2,1.9971572E-2,-3.9119683E-2,1.5646761E-2,5.4269485E-2,6.3258773E-3,-2.5904289E-2,2.6787939E-2,1.0555482E-1,5.402669E-2,2.9151864E-2,-9.608547E-3,-1.9099623E-3,-3.7714496E-2],"categories":[],"categories_nodes":[],"categories_segments":[],"categories_sizes":[],"default_left":[0,0,0,1,0,0,1,0,0,0,1,0,0,0,0,0,0,0,0,0,0,0,0,0,0,0,0,0,0],"id":15,"left_children":[1,3,5,7,9,11,13,15,17,19,21,-1,23,25,27,-1,-1,-1,-1,-1,-1,-1,-1,-1,-1,-1,-1,-1,-1],"loss_changes":[4.1634494E2,6.749838E1,2.073942E2,6.52233E1,1.9079445E1,2.786737E1,1.7309761E2,3.9151794E1,1.5998495E1,8.594542E0,9.637537E0,0E0,1.0874374E1,1.1882528E2,2.410431E1,0E0,0E0,0E0,0E0,0E0,0E0,0E0,0E0,0E0,0E0,0E0,0E0,0E0,0E0],"parents":[2147483647,0,0,1,1,2,2,3,3,4,4,5,5,6,6,7,7,8,8,9,9,10,10,12,12,13,13,14,14],"right_children":[2,4,6,8,10,12,14,16,18,20,22,-1,24,26,28,-1,-1,-1,-1,-1,-1,-1,-1,-1,-1,-1,-1,-1,-1],"split_conditions":[2.6805726E-1,1E0,1.7797916E-1,2.5971276E-1,1.1164384E1,1.232386E1,6.5982354E-1,6.7E0,1.1992297E1,9.190881E-1,6.2092056E5,-0E0,5.805E3,2.3331697E-1,2.1970572E0,5.585352E-2,1.9971572E-2,-3.9119683E-2,1.5646761E-2,5.4269485E-2,6.3258773E-3,-2.5904289E-2,2.6787939E-2,1.0555482E-1,5.402669E-2,2.9151864E-2,-9.608547E-3,-1.9099623E-3,-3.7714496E-2],"split_indices":[13,99,12,12,15,98,13,25,98,89,39,0,93,51,53,0,0,0,0,0,0,0,0,0,0,0,0,0,0],"split_type":[0,0,0,0,0,0,0,0,0,0,0,0,0,0,0,0,0,0,0,0,0,0,0,0,0,0,0,0,0],"sum_hessian":[1.2583272E4,2.7172407E3,9.866032E3,2.2745535E3,4.426874E2,3.7694986E2,9.489082E3,1.6726698E3,6.0188367E2,1.9469351E2,2.4799391E2,6.8318405E1,3.0863147E2,7.135966E3,2.3531165E3,1.2875513E3,3.851185E2,4.2454727E1,5.594289E2,4.271493E1,1.5197858E2,2.2293304E2,2.5060863E1,7.607597E1,2.3255548E2,7.8125714E2,6.3547085E3,1.9727165E2,2.1558447E3],"tree_param":{"num_deleted":"0","num_feature":"100","num_nodes":"29","size_leaf_vector":"1"}},{"base_weights":[-5.4081236E-3,9.338903E-2,-2.673936E-1,2.0663378E-1,-9.1531426E-2,-3.258261E-1,6.2378224E-2,1.7300782E-1,7.811014E-1,1.7848097E-1,-1.8003671E-1,-2.5295818E-1,-5.373749E-1,6.275458E-1,-4.750371E-2,2.3896936E-2,-4.443705E-3,9.626664E-3,8.38334E-2,-9.5177675E-3,3.06174E-2,-1.2392354E-2,-5.6333788E-2,-1.6396735E-2,-4.7125936E-2,-1.0937861E-2,-5.3536445E-2,-0E0,7.401336E-2,-2.2353806E-2,2.3542155E-2],"categories":[],"categories_nodes":[],"categories_segments":[],"categories_sizes":[],"default_left":[1,1,1,1,1,1,0,1,0,0,1,0,0,0,0,0,0,0,0,0,0,0,0,0,0,0,0,0,0,0,0],"id":16,"left_children":[1,3,5,7,9,11,13,15,17,19,21,23,25,27,29,-1,-1,-1,-1,-1,-1,-1,-1,-1,-1,-1,-1,-1,-1,-1,-1],"loss_changes":[3.2560257E2,1.9133112E2,6.723755E1,1.06002426E2,8.291372E1,4.224478E1,3.3896854E1,9.5556656E1,1.9312195E1,3.5560703E1,5.0666344E1,4.072258E1,7.2021484E0,9.2870865E0,2.507118E1,0E0,0E0,0E0,0E0,0E0,0E0,0E0,0E0,0E0,0E0,0E0,0E0,0E0,0E0,0E0,0E0],"parents":[2147483647,0,0,1,1,2,2,3,3,4,4,5,5,6,6,7,7,8,8,9,9,10,10,11,11,12,12,13,13,14,14],"right_children":[2,4,6,8,10,12,14,16,18,20,22,24,26,28,30,-1,-1,-1,-1,-1,-1,-1,-1,-1,-1,-1,-1,-1,-1,-1,-1],"split_conditions":[6.2009996E-1,4.3296167E-1,9.282694E-1,1.0054E0,2.5561616E-1,4.8572648E-1,1.3421492E1,2.9997355E-1,1.24515E4,1.79055E4,6.6506505E-1,7.2337896E-1,2.301589E-1,1.66848E0,5.92E-2,2.3896936E-2,-4.443705E-3,9.626664E-3,8.38334E-2,-9.5177675E-3,3.06174E-2,-1.2392354E-2,-5.6333788E-2,-1.6396735E-2,-4.7125936E-2,-1.0937861E-2,-5.3536445E-2,-0E0,7.401336E-2,-2.2353806E-2,2.3542155E-2],"split_indices":[13,14,37,37,13,12,50,12,1,1,12,13,14,8,3,0,0,0,0,0,0,0,0,0,0,0,0,0,0,0,0],"split_type":[0,0,0,0,0,0,0,0,0,0,0,0,0,0,0,0,0,0,0,0,0,0,0,0,0,0,0,0,0,0,0],"sum_hessian":[1.2547804E4,9.108316E3,3.4394873E3,5.6567695E3,3.4515474E3,2.9283008E3,5.1118665E2,5.3574355E3,2.9933383E2,8.431731E2,2.6083743E3,2.1992954E3,7.290054E2,8.1081085E1,4.3010556E2,3.9316926E3,1.4257429E3,4.6246864E1,2.5308698E2,2.845503E2,5.586228E2,2.3504998E3,2.578745E2,1.6830259E3,5.162694E2,5.6954086E1,6.720513E2,1.6911406E1,6.4169685E1,2.6868497E2,1.6142061E2],"tree_param":{"num_deleted":"0","num_feature":"100","num_nodes":"31","size_leaf_vector":"1"}},{"base_weights":[-3.282766E-3,1.2379126E-1,-1.8788895E-1,2.1238486E-1,-1.307111E-1,-5.407142E-2,-3.4346965E-1,2.8423712E-1,-5.014641E-2,2.4522667E-1,-1.900714E-1,5.5763656E-1,-9.588529E-2,-8.707173E-2,-4.1720834E-1,1.832934E-2,4.7465414E-2,1.6032098E-2,-1.603868E-2,-6.424841E-3,3.941907E-2,-4.2243823E-2,-1.0519651E-2,7.15646E-2,4.032112E-3,-1.157944E-2,5.333105E-2,8.413993E-2,-1.3028673E-2,1.1708105E-2,-4.1568846E-2],"categories":[],"categories_nodes":[],"categories_segments":[],"categories_sizes":[],"default_left":[0,0,1,1,0,0,1,1,0,0,0,0,1,0,0,0,0,0,0,0,0,0,0,0,0,0,0,0,0,0,0],"id":17,"left_children":[1,3,5,7,9,11,13,15,17,19,21,23,25,27,29,-1,-1,-1,-1,-1,-1,-1,-1,-1,-1,-1,-1,-1,-1,-1,-1],"loss_changes":[2.9345105E2,1.6720264E2,1.0515318E2,1.0439273E2,4.2784214E1,6.990485E1,4.2903168E1,8.266165E1,3.1381779E1,1.5044167E1,3.1780842E1,1.5778122E1,4.5613167E1,2.617718E1,2.4401855E1,0E0,0E0,0E0,0E0,0E0,0E0,0E0,0E0,0E0,0E0,0E0,0E0,0E0,0E0,0E0,0E0],"parents":[2147483647,0,0,1,1,2,2,3,3,4,4,5,5,6,6,7,7,8,8,9,9,10,10,11,11,12,12,13,13,14,14],"right_children":[2,4,6,8,10,12,14,16,18,20,22,24,26,28,30,-1,-1,-1,-1,-1,-1,-1,-1,-1,-1,-1,-1,-1,-1,-1,-1],"split_conditions":[1.7510574E-1,6.156443E-1,4.365065E-1,3.7660113E-1,2.301589E-1,2.4971429E-1,3.2207426E-1,1.2112E0,3.740208E-1,9.8944116E-1,1E0,1.1089871E0,2.911563E-1,2.3321009E-1,8.2608384E-1,1.832934E-2,4.7465414E-2,1.6032098E-2,-1.603868E-2,-6.424841E-3,3.941907E-2,-4.2243823E-2,-1.0519651E-2,7.15646E-2,4.032112E-3,-1.157944E-2,5.333105E-2,8.413993E-2,-1.3028673E-2,1.1708105E-2,-4.1568846E-2],"split_indices":[11,13,14,12,14,12,13,7,14,37,22,17,83,12,57,0,0,0,0,0,0,0,0,0,0,0,0,0,0,0,0],"split_type":[0,0,0,0,0,0,0,0,0,0,0,0,0,0,0,0,0,0,0,0,0,0,0,0,0,0,0,0,0,0,0],"sum_hessian":[1.2487295E4,7.3895986E3,5.0976963E3,5.4896997E3,1.899899E3,2.7546873E3,2.343009E3,4.3170654E3,1.172634E3,2.5008421E2,1.6498148E3,1.6641486E2,2.5882725E3,5.346185E2,1.8083905E3,3.0795945E3,1.2374711E3,4.0504697E2,7.6758704E2,8.537184E1,1.6471237E2,3.6928403E2,1.2805309E3,1.1356169E2,5.2853165E1,2.4966965E3,9.157582E1,1.7864334E1,5.167542E2,6.972939E1,1.738661E3],"tree_param":{"num_deleted":"0","num_feature":"100","num_nodes":"31","size_leaf_vector":"1"}},{"base_weights":[1.9206508E-3,1.017591E-1,-1.9625771E-1,-1.6028336E-1,1.7507443E-1,2.1956159E-1,-2.3074731E-1,1.9320683E-1,-2.19825E-1,5.844843E-1,1.2775974E-1,7.668475E-1,1.11430526E-1,-1.9893572E-1,-5.670798E-2,-1.634748E-2,3.0168429E-2,1.4640477E-2,-2.6073031E-2,1.23511115E-2,7.3842E-2,5.3669397E-2,8.757189E-3,1.2418167E-2,1.07172176E-1,4.9351834E-2,-0E0,-2.2126434E-2,9.810888E-3],"categories":[],"categories_nodes":[],"categories_segments":[],"categories_sizes":[],"default_left":[1,0,0,0,0,0,1,0,0,0,0,1,0,1,0,0,0,0,0,0,0,0,0,0,0,0,0,0,0],"id":18,"left_children":[1,3,5,7,9,11,13,15,17,19,21,23,25,27,-1,-1,-1,-1,-1,-1,-1,-1,-1,-1,-1,-1,-1,-1,-1],"loss_changes":[2.4681886E2,1.5993268E2,6.0285034E1,3.856134E1,1.236718E2,1.5975345E1,4.264218E1,1.2837852E1,3.3817856E1,5.6931274E1,8.799764E1,6.8067913E0,1.2815737E1,3.9189102E1,0E0,0E0,0E0,0E0,0E0,0E0,0E0,0E0,0E0,0E0,0E0,0E0,0E0,0E0,0E0],"parents":[2147483647,0,0,1,1,2,2,3,3,4,4,5,5,6,6,7,7,8,8,9,9,10,10,11,11,12,12,13,13],"right_children":[2,4,6,8,10,12,14,16,18,20,22,24,26,28,-1,-1,-1,-1,-1,-1,-1,-1,-1,-1,-1,-1,-1,-1,-1],"split_conditions":[4.8485148E-1,9.3542147E-1,2.8474617E-1,8.849081E-1,2.3613639E-1,9.987745E-1,7.335484E-1,-1.6794169E5,1.9847192E-1,5.9466404E-1,2.0400469E-1,1.132E0,1.4426807E-1,9.3542147E-1,-5.670798E-2,-1.634748E-2,3.0168429E-2,1.4640477E-2,-2.6073031E-2,1.23511115E-2,7.3842E-2,5.3669397E-2,8.757189E-3,1.2418167E-2,1.07172176E-1,4.9351834E-2,-0E0,-2.2126434E-2,9.810888E-3],"split_indices":[14,37,12,57,51,57,12,39,51,73,12,90,12,37,0,0,0,0,0,0,0,0,0,0,0,0,0,0,0],"split_type":[0,0,0,0,0,0,0,0,0,0,0,0,0,0,0,0,0,0,0,0,0,0,0,0,0,0,0,0,0],"sum_hessian":[1.2471196E4,8.304089E3,4.167108E3,1.8059882E3,6.4981006E3,3.1047696E2,3.8566309E3,2.51824E2,1.5541642E3,6.587445E2,5.839356E3,3.9755417E1,2.7072153E2,3.5687373E3,2.8789365E2,5.889112E1,1.9293289E2,1.9641663E2,1.3577476E3,2.082638E2,4.504807E2,4.1409113E2,5.425265E3,2.091214E1,1.8843279E1,5.1802845E1,2.1891869E2,3.2015247E3,3.672127E2],"tree_param":{"num_deleted":"0","num_feature":"100","num_nodes":"29","size_leaf_vector":"1"}},{"base_weights":[2.8805349E-3,1.4834169E-1,-1.14000335E-1,-3.0082032E-2,2.967889E-1,3.3718774E-1,-1.4689651E-1,4.0122937E-2,-2.8395048E-1,-1.1037533E-1,3.7855902E-1,2.671178E-2,4.6225944E-1,-1.9662346E-1,1.4458698E-1,1.9136429E-2,-4.7872877E-3,1.0230425E-2,-3.1565417E-2,1.4116109E-2,-4.2955536E-2,1.7971229E-2,4.589106E-2,-3.3443138E-2,2.17691E-2,6.9715485E-2,2.3385469E-2,-2.8363245E-2,-6.016764E-3,3.2029107E-2,-6.051525E-3],"categories":[],"categories_nodes":[],"categories_segments":[],"categories_sizes":[],"default_left":[0,0,0,1,1,0,1,0,0,0,0,0,0,0,1,0,0,0,0,0,0,0,0,0,0,0,0,0,0,0,0],"id":19,"left_children":[1,3,5,7,9,11,13,15,17,19,21,23,25,27,29,-1,-1,-1,-1,-1,-1,-1,-1,-1,-1,-1,-1,-1,-1,-1,-1],"loss_changes":[2.1146718E2,1.4770203E2,1.0208005E2,4.5596058E1,1.0210779E2,1.6737556E1,9.350261E1,2.9644062E1,1.1888927E1,4.6943935E1,4.912384E1,1.178287E1,1.5438644E1,7.503151E1,3.8874176E1,0E0,0E0,0E0,0E0,0E0,0E0,0E0,0E0,0E0,0E0,0E0,0E0,0E0,0E0,0E0,0E0],"parents":[2147483647,0,0,1,1,2,2,3,3,4,4,5,5,6,6,7,7,8,8,9,9,10,10,11,11,12,12,13,13,14,14],"right_children":[2,4,6,8,10,12,14,16,18,20,22,24,26,28,30,-1,-1,-1,-1,-1,-1,-1,-1,-1,-1,-1,-1,-1,-1,-1,-1],"split_conditions":[1.1362898E-1,5.4013334E-2,2.4971429E-1,4.3827257E-1,1.0845555E1,2.0186667E0,9.4218254E-1,3.944954E-1,1.530688E1,9.454822E0,6.622069E-2,2.71E2,3.7740424E-1,1.1385978E0,7.550769E-2,1.9136429E-2,-4.7872877E-3,1.0230425E-2,-3.1565417E-2,1.4116109E-2,-4.2955536E-2,1.7971229E-2,4.589106E-2,-3.3443138E-2,2.17691E-2,6.9715485E-2,2.3385469E-2,-2.8363245E-2,-6.016764E-3,3.2029107E-2,-6.051525E-3],"split_indices":[11,3,12,12,6,8,37,14,50,6,3,45,14,7,95,0,0,0,0,0,0,0,0,0,0,0,0,0,0,0,0],"split_type":[0,0,0,0,0,0,0,0,0,0,0,0,0,0,0,0,0,0,0,0,0,0,0,0,0,0,0,0,0,0,0],"sum_hessian":[1.241782E4,5.5411226E3,6.876698E3,2.5115784E3,3.0295442E3,4.5735513E2,6.4193433E3,1.9647836E3,5.4679486E2,5.01101E2,2.528443E3,1.397327E2,3.1762244E2,5.4932593E3,9.2608386E2,7.104173E2,1.2543662E3,5.6000076E1,4.9079477E2,2.8408926E2,2.1701175E2,9.390994E2,1.5893436E3,4.2487274E1,9.7245415E1,1.2530612E2,1.9231633E2,3.0630825E3,2.4301768E3,4.8248965E2,4.435942E2],"tree_param":{"num_deleted":"0","num_feature":"100","num_nodes":"31","size_leaf_vector":"1"}},{"base_weights":[-2.439141E-3,4.5259565E-2,-3.337845E-1,-7.8040555E-2,1.5361236E-1,-3.5501227E-1,4.9859464E-1,-1.0119837E-1,4.7558355E-1,2.4056894E-1,-2.999918E-1,-5.517036E-2,-4.0892914E-1,8.866729E-2,-2.4359666E-3,5.5574207E-3,-1.6262231E-2,6.615624E-3,5.9406772E-2,-1.9819972E-3,3.008313E-2,7.936401E-3,-5.141762E-2,-2.1232532E-2,1.7801246E-2,-3.1089548E-2,-5.4204144E-2],"categories":[],"categories_nodes":[],"categories_segments":[],"categories_sizes":[],"default_left":[1,1,1,1,0,0,0,0,0,0,0,0,0,0,0,0,0,0,0,0,0,0,0,0,0,0,0],"id":20,"left_children":[1,3,5,7,9,11,13,15,17,19,21,23,25,-1,-1,-1,-1,-1,-1,-1,-1,-1,-1,-1,-1,-1,-1],"loss_changes":[1.9791797E2,1.45912E2,2.8847183E1,6.47236E1,2.2978111E2,2.364177E1,1.1608772E1,5.6253735E1,1.0520996E1,1.0110181E2,8.951864E1,1.0835679E1,1.3397156E1,0E0,0E0,0E0,0E0,0E0,0E0,0E0,0E0,0E0,0E0,0E0,0E0,0E0,0E0],"parents":[2147483647,0,0,1,1,2,2,3,3,4,4,5,5,6,6,7,7,8,8,9,9,10,10,11,11,12,12],"right_children":[2,4,6,8,10,12,14,16,18,20,22,24,26,-1,-1,-1,-1,-1,-1,-1,-1,-1,-1,-1,-1,-1,-1],"split_conditions":[6.722429E-1,5.3542856E-2,5.824547E-1,5.491715E-1,9.307692E-2,1.0724628E-4,1.0778841E1,3.457848E-1,9.55E2,3.2648033E-1,9.286301E0,2.120625E-1,3.3386803E-1,8.866729E-2,-2.4359666E-3,5.5574207E-3,-1.6262231E-2,6.615624E-3,5.9406772E-2,-1.9819972E-3,3.008313E-2,7.936401E-3,-5.141762E-2,-2.1232532E-2,1.7801246E-2,-3.1089548E-2,-5.4204144E-2],"split_indices":[14,3,77,73,2,19,84,14,28,33,6,4,11,0,0,0,0,0,0,0,0,0,0,0,0,0,0],"split_type":[0,0,0,0,0,0,0,0,0,0,0,0,0,0,0,0,0,0,0,0,0,0,0,0,0,0,0],"sum_hessian":[1.2462117E4,1.0893031E4,1.569086E3,5.085272E3,5.8077593E3,1.5372535E3,3.1832525E1,4.8914067E3,1.9386499E2,4.8811313E3,9.2662787E2,2.437171E2,1.2935365E3,1.6595623E1,1.5236902E1,1.4957908E3,3.3956162E3,6.098358E1,1.3288141E2,1.1198885E3,3.7612427E3,3.590332E2,5.6759467E2,1.5002359E2,9.369352E1,9.0088434E2,3.9265216E2],"tree_param":{"num_deleted":"0","num_feature":"100","num_nodes":"27","size_leaf_vector":"1"}},{"base_weights":[-1.3742478E-3,7.016972E-2,-2.8094354E-1,-1.2367591E-1,1.4145777E-1,2.382451E-1,-3.1306717E-1,-1.5207493E-1,5.1927155E-1,-1.3980022E-1,1.9437307E-1,5.1994854E-1,-0E0,-2.6737928E-1,-5.7289076E-1,1.1025764E-2,-1.962791E-2,7.1861364E-2,-0E0,-2.9786631E-2,-4.3324577E-3,3.8901682E-3,2.770532E-2,6.548292E-2,-0E0,-1.9880846E-2,2.7956096E-2,2.4628325E-3,-2.881628E-2,3.418224E-3,-5.6582283E-2],"categories":[],"categories_nodes":[],"categories_segments":[],"categories_sizes":[],"default_left":[1,1,0,1,0,0,1,0,0,0,0,1,1,0,0,0,0,0,0,0,0,0,0,0,0,0,0,0,0,0,0],"id":21,"left_children":[1,3,5,7,9,11,13,15,17,19,21,23,25,27,29,-1,-1,-1,-1,-1,-1,-1,-1,-1,-1,-1,-1,-1,-1,-1,-1],"loss_changes":[2.4981671E2,1.3721817E2,4.3229828E1,4.8269947E1,1.0844466E2,1.054545E1,2.529422E1,3.898953E1,1.413941E1,1.793923E1,9.2293625E1,7.787487E0,5.730504E0,2.3949127E1,7.2740097E0,0E0,0E0,0E0,0E0,0E0,0E0,0E0,0E0,0E0,0E0,0E0,0E0,0E0,0E0,0E0,0E0],"parents":[2147483647,0,0,1,1,2,2,3,3,4,4,5,5,6,6,7,7,8,8,9,9,10,10,11,11,12,12,13,13,14,14],"right_children":[2,4,6,8,10,12,14,16,18,20,22,24,26,28,30,-1,-1,-1,-1,-1,-1,-1,-1,-1,-1,-1,-1,-1,-1,-1,-1],"split_conditions":[6.474776E-1,1.6524E4,2.4636744E-1,5.4173267E-1,2.3184417E-1,6.8406653E-1,6.624115E-1,2.4853556E-1,2.701208E2,-5.71E2,4.6505813E-2,1.0093022E-1,6.847273E-2,1.49222E1,1.017201E1,1.1025764E-2,-1.962791E-2,7.1861364E-2,-0E0,-2.9786631E-2,-4.3324577E-3,3.8901682E-3,2.770532E-2,6.548292E-2,-0E0,-1.9880846E-2,2.7956096E-2,2.4628325E-3,-2.881628E-2,3.418224E-3,-5.6582283E-2],"split_indices":[13,1,12,73,5,13,12,14,56,46,2,95,3,52,52,0,0,0,0,0,0,0,0,0,0,0,0,0,0,0,0],"split_type":[0,0,0,0,0,0,0,0,0,0,0,0,0,0,0,0,0,0,0,0,0,0,0,0,0,0,0,0,0,0,0],"sum_hessian":[1.2448416E4,9.909297E3,2.5391194E3,2.6534268E3,7.25587E3,1.4056314E2,2.3985562E3,2.550475E3,1.02951614E2,1.1394757E3,6.116394E3,6.2506924E1,7.805622E1,2.0611875E3,3.3736868E2,4.3074744E2,2.1197278E3,6.807977E1,3.4871845E1,3.8069696E2,7.587788E2,2.4219888E3,3.6944055E3,4.7854282E1,1.4652641E1,4.9179214E1,2.8877003E1,2.3005986E2,1.8311277E3,1.0333092E1,3.2703558E2],"tree_param":{"num_deleted":"0","num_feature":"100","num_nodes":"31","size_leaf_vector":"1"}},{"base_weights":[-2.1149158E-3,2.4910653E-1,-7.137956E-2,4.7827008E-1,1.6702747E-1,-3.986833E-3,-2.6726282E-1,2.3836105E-1,6.255802E-1,1.361545E-1,7.07002E-1,3.2034162E-2,-3.2664877E-1,9.7624496E-2,-3.1592035E-1,-9.434144E-3,3.3471268E-2,6.702283E-2,7.3116715E-3,1.9387455E-3,2.267032E-2,8.012E-2,-7.1759475E-3,3.0821579E-2,-6.390893E-4,1.8610551E-3,-3.6061104E-2,3.0346727E-2,-1.6732337E-2,-2.0688055E-2,-4.2473566E-2],"categories":[],"categories_nodes":[],"categories_segments":[],"categories_sizes":[],"default_left":[1,0,1,0,1,0,0,0,0,0,1,0,0,0,0,0,0,0,0,0,0,0,0,0,0,0,0,0,0,0,0],"id":22,"left_children":[1,3,5,7,9,11,13,15,17,19,21,23,25,27,29,-1,-1,-1,-1,-1,-1,-1,-1,-1,-1,-1,-1,-1,-1,-1,-1],"loss_changes":[2.1609222E2,4.8217896E1,1.2818578E2,2.1267258E1,3.040181E1,8.543642E1,4.4977448E1,1.2079206E1,1.7180557E1,2.2206493E1,1.377935E1,7.5752914E1,1.5231384E1,1.8840899E1,2.6188126E1,0E0,0E0,0E0,0E0,0E0,0E0,0E0,0E0,0E0,0E0,0E0,0E0,0E0,0E0,0E0,0E0],"parents":[2147483647,0,0,1,1,2,2,3,3,4,4,5,5,6,6,7,7,8,8,9,9,10,10,11,11,12,12,13,13,14,14],"right_children":[2,4,6,8,10,12,14,16,18,20,22,24,26,28,30,-1,-1,-1,-1,-1,-1,-1,-1,-1,-1,-1,-1,-1,-1,-1,-1],"split_conditions":[2.5980765E-1,7.764603E-2,5.585066E-1,2.00655E4,1.0027976E0,7.060473E-1,9.973308E-1,3.3369285E-1,7.9E0,3.0357144E0,2.1762451E1,1.4711793E1,2.0442262E-1,2.0833011E-1,2.2143242E-1,-9.434144E-3,3.3471268E-2,6.702283E-2,7.3116715E-3,1.9387455E-3,2.267032E-2,8.012E-2,-7.1759475E-3,3.0821579E-2,-6.390893E-4,1.8610551E-3,-3.6061104E-2,3.0346727E-2,-1.6732337E-2,-2.0688055E-2,-4.2473566E-2],"split_indices":[13,13,14,1,37,13,57,33,25,8,50,52,14,11,11,0,0,0,0,0,0,0,0,0,0,0,0,0,0,0,0],"split_type":[0,0,0,0,0,0,0,0,0,0,0,0,0,0,0,0,0,0,0,0,0,0,0,0,0,0,0,0,0,0,0],"sum_hessian":[1.2428728E4,2.6740623E3,9.754666E3,6.874589E2,1.9866034E3,7.272975E3,2.4816904E3,2.755742E2,4.1188474E2,1.8925608E3,9.404265E1,6.541769E3,7.3120605E2,2.8504132E2,2.1966492E3,6.5381485E1,2.1019269E2,3.5059598E2,6.128873E1,9.1312054E2,9.794402E2,8.171318E1,1.2329474E1,7.6197754E2,5.7797915E3,9.582235E1,6.3538367E2,1.6134734E2,1.2369399E2,1.3011495E3,8.954996E2],"tree_param":{"num_deleted":"0","num_feature":"100","num_nodes":"31","size_leaf_vector":"1"}},{"base_weights":[-8.122396E-4,9.801675E-2,-1.5322284E-1,5.5358537E-2,3.7775508E-1,-2.5380167E-1,-1.778521E-2,2.1249616E-1,-1.3954601E-2,2.2286308E-1,6.6560286E-1,-1.9424354E-1,-5.1635957E-1,5.5907063E-2,-2.7707514E-1,2.7015846E-2,-2.630086E-3,2.974922E-2,-5.8140606E-3,5.144315E-4,4.0985413E-2,7.13679E-3,7.6161295E-2,-1.2191383E-2,-3.9987892E-2,-2.0939973E-3,-5.184206E-2,-1.1572854E-2,1.5644342E-2,5.6030746E-3,-3.153702E-2],"categories":[],"categories_nodes":[],"categories_segments":[],"categories_sizes":[],"default_left":[1,1,0,0,0,1,1,1,0,0,0,0,0,1,0,0,0,0,0,0,0,0,0,0,0,0,0,0,0,0,0],"id":23,"left_children":[1,3,5,7,9,11,13,15,17,19,21,23,25,27,29,-1,-1,-1,-1,-1,-1,-1,-1,-1,-1,-1,-1,-1,-1,-1,-1],"loss_changes":[1.875256E2,8.869642E1,6.608411E1,7.192972E1,4.07061E1,4.128627E1,4.0959705E1,3.6602592E1,7.093707E1,2.9244366E1,2.5493515E1,3.2600693E1,6.8191986E0,3.249658E1,1.0013508E1,0E0,0E0,0E0,0E0,0E0,0E0,0E0,0E0,0E0,0E0,0E0,0E0,0E0,0E0,0E0,0E0],"parents":[2147483647,0,0,1,1,2,2,3,3,4,4,5,5,6,6,7,7,8,8,9,9,10,10,11,11,12,12,13,13,14,14],"right_children":[2,4,6,8,10,12,14,16,18,20,22,24,26,28,30,-1,-1,-1,-1,-1,-1,-1,-1,-1,-1,-1,-1,-1,-1,-1,-1],"split_conditions":[5.5153507E-1,1.3167925E0,1.1452E0,3.556387E-1,2.59695E4,6.545293E-1,6.615E3,8.525142E-2,9.902728E-1,6.923E-2,4.5226667E-2,3.608176E-1,2.3516836E-2,2.17395E4,2.35791E3,2.7015846E-2,-2.630086E-3,2.974922E-2,-5.8140606E-3,5.144315E-4,4.0985413E-2,7.13679E-3,7.6161295E-2,-1.2191383E-2,-3.9987892E-2,-2.0939973E-3,-5.184206E-2,-1.1572854E-2,1.5644342E-2,5.6030746E-3,-3.153702E-2],"split_indices":[13,7,7,14,1,14,93,95,57,3,3,11,11,1,87,0,0,0,0,0,0,0,0,0,0,0,0,0,0,0,0],"split_type":[0,0,0,0,0,0,0,0,0,0,0,0,0,0,0,0,0,0,0,0,0,0,0,0,0,0,0,0,0,0,0],"sum_hessian":[1.2425393E4,7.529357E3,4.8960356E3,6.548776E3,9.805806E2,2.79516E3,2.1008757E3,2.0107223E3,4.5380537E3,6.519574E2,3.2862323E2,2.296907E3,4.9825284E2,1.6330623E3,4.6781345E2,1.5443728E3,4.663495E2,5.6193915E2,3.9761147E3,3.3136465E2,3.205927E2,6.944548E1,2.5917773E2,1.808425E3,4.88482E2,3.7071976E1,4.6118085E2,6.133307E2,1.0197315E3,6.1722313E1,4.0609113E2],"tree_param":{"num_deleted":"0","num_feature":"100","num_nodes":"31","size_leaf_vector":"1"}},{"base_weights":[-4.0083975E-3,4.6306852E-2,-2.929948E-1,9.2507444E-2,-2.242414E-1,-3.2153898E-1,4.0463987E-1,1.3144402E-1,-1.8024674E-1,3.0599946E-1,-2.6400155E-1,-4.5852393E-2,-3.726437E-1,-0E0,7.560042E-1,4.3239124E-2,8.520679E-3,-2.3880241E-2,6.141382E-3,-0E0,4.5984823E-2,2.3394864E-2,-2.8387189E-2,6.4645894E-3,-3.397803E-2,2.6651574E-2,-3.6800303E-2,2.6447462E-2,-3.7445694E-2,9.983403E-2,-0E0],"categories":[],"categories_nodes":[],"categories_segments":[],"categories_sizes":[],"default_left":[1,1,1,1,1,0,0,0,1,0,0,1,0,0,1,0,0,0,0,0,0,0,0,0,0,0,0,0,0,0,0],"id":24,"left_children":[1,3,5,7,9,11,13,15,17,19,21,23,25,27,29,-1,-1,-1,-1,-1,-1,-1,-1,-1,-1,-1,-1,-1,-1,-1,-1],"loss_changes":[1.8104288E2,1.3184296E2,3.7570786E1,9.600453E1,3.286753E1,2.3935959E1,1.0359322E1,1.0472591E2,2.072005E1,5.9374876E0,2.792701E1,1.1533986E1,1.8340042E1,5.447504E0,6.706169E0,0E0,0E0,0E0,0E0,0E0,0E0,0E0,0E0,0E0,0E0,0E0,0E0,0E0,0E0,0E0,0E0],"parents":[2147483647,0,0,1,1,2,2,3,3,4,4,5,5,6,6,7,7,8,8,9,9,10,10,11,11,12,12,13,13,14,14],"right_children":[2,4,6,8,10,12,14,16,18,20,22,24,26,28,30,-1,-1,-1,-1,-1,-1,-1,-1,-1,-1,-1,-1,-1,-1,-1,-1],"split_conditions":[5.3048116E-1,6.380435E-1,1.01255E0,1.20465E4,1.2741001E-1,2.6504943E-1,-8.18E2,1.5027298E1,9.7107273E-1,5.1205E-2,2.0570293E-1,3.3246E3,6.7954205E-2,6.078485E-1,9.2400223E-1,4.3239124E-2,8.520679E-3,-2.3880241E-2,6.141382E-3,-0E0,4.5984823E-2,2.3394864E-2,-2.8387189E-2,6.4645894E-3,-3.397803E-2,2.6651574E-2,-3.6800303E-2,2.6447462E-2,-3.7445694E-2,9.983403E-2,-0E0],"split_indices":[12,14,37,93,13,14,46,52,37,3,51,93,13,13,89,0,0,0,0,0,0,0,0,0,0,0,0,0,0,0,0],"split_type":[0,0,0,0,0,0,0,0,0,0,0,0,0,0,0,0,0,0,0,0,0,0,0,0,0,0,0,0,0,0,0],"sum_hessian":[1.2393829E4,1.0554007E4,1.8398225E3,9.026792E3,1.5272147E3,1.774892E3,6.493051E1,7.9106406E3,1.1161512E3,9.858442E1,1.4286302E3,2.874808E2,1.4874113E3,3.3634167E1,3.1296345E1,8.674794E2,7.043161E3,8.679508E2,2.482004E2,3.9405495E1,5.9178925E1,8.883008E1,1.3398002E3,2.0931845E2,7.8162346E1,3.2166782E1,1.4552444E3,2.0932423E1,1.2701744E1,1.8214794E1,1.308155E1],"tree_param":{"num_deleted":"0","num_feature":"100","num_nodes":"31","size_leaf_vector":"1"}},{"base_weights":[2.0325475E-3,8.608944E-2,-1.3543709E-1,1.3899931E-1,-1.598308E-1,2.7358976E-1,-1.6859274E-1,4.8946756E-1,1.0011061E-1,4.790978E-2,-2.8135604E-1,1.4407143E-1,6.9731885E-1,-5.1150584E-1,-1.2963183E-1,1.7135931E-2,6.0250875E-2,1.8443283E-2,-8.729974E-4,2.8065134E-2,-6.8132547E-3,4.457818E-2,-2.8328124E-2,-2.2663908E-2,2.8039888E-2,7.878881E-2,-0E0,-8.429218E-3,-5.7867367E-2,3.993028E-2,-1.4675935E-2],"categories":[],"categories_nodes":[],"categories_segments":[],"categories_sizes":[],"default_left":[0,1,0,0,1,1,1,1,0,0,0,0,0,0,0,0,0,0,0,0,0,0,0,0,0,0,0,0,0,0,0],"id":25,"left_children":[1,3,5,7,9,11,13,15,17,19,21,23,25,27,29,-1,-1,-1,-1,-1,-1,-1,-1,-1,-1,-1,-1,-1,-1,-1,-1],"loss_changes":[1.4309723E2,1.003403E2,6.3715294E1,8.471434E1,3.49949E1,1.628477E1,5.6011566E1,2.5851364E1,6.0335278E1,1.5743138E1,1.3082924E1,1.7267704E1,6.465893E0,1.6562614E1,5.622962E1,0E0,0E0,0E0,0E0,0E0,0E0,0E0,0E0,0E0,0E0,0E0,0E0,0E0,0E0,0E0,0E0],"parents":[2147483647,0,0,1,1,2,2,3,3,4,4,5,5,6,6,7,7,8,8,9,9,10,10,11,11,12,12,13,13,14,14],"right_children":[2,4,6,8,10,12,14,16,18,20,22,24,26,28,30,-1,-1,-1,-1,-1,-1,-1,-1,-1,-1,-1,-1,-1,-1,-1,-1],"split_conditions":[1.8322507E-1,8.721E3,1.62442E-1,2.834239E0,9.999967E-1,-8.67E2,1.0845555E1,5.3542856E-2,6E0,5.262873E-2,7.058052E-2,-1.08E2,3.0755E-2,9.286301E0,1.2691991E1,1.7135931E-2,6.0250875E-2,1.8443283E-2,-8.729974E-4,2.8065134E-2,-6.8132547E-3,4.457818E-2,-2.8328124E-2,-2.2663908E-2,2.8039888E-2,7.878881E-2,-0E0,-8.429218E-3,-5.7867367E-2,3.993028E-2,-1.4675935E-2],"split_indices":[11,93,14,53,57,36,6,3,0,11,14,47,20,6,6,0,0,0,0,0,0,0,0,0,0,0,0,0,0,0,0],"split_type":[0,0,0,0,0,0,0,0,0,0,0,0,0,0,0,0,0,0,0,0,0,0,0,0,0,0,0,0,0,0,0],"sum_hessian":[1.2379121E4,7.695003E3,4.684118E3,6.34365E3,1.351353E3,3.4142517E2,4.342693E3,6.1836414E2,5.7252856E3,4.928563E2,8.584967E2,2.7383E2,6.759519E1,4.270941E2,3.9155989E3,2.1310406E2,4.052601E2,3.0659827E3,2.659303E3,1.6323578E2,3.296205E2,1.3437279E1,8.4505945E2,7.2169624E1,2.0166035E2,5.404144E1,1.3553757E1,9.075346E1,3.363406E2,1.6622221E2,3.7493767E3],"tree_param":{"num_deleted":"0","num_feature":"100","num_nodes":"31","size_leaf_vector":"1"}},{"base_weights":[-4.279272E-3,1.9027543E-1,-5.8984276E-2,-8.6976945E-2,2.4186008E-1,-2.363808E-1,3.067134E-3,3.1458777E-1,-1.5869293E-1,-6.426902E-2,2.749155E-1,-0E0,-3.1289163E-1,8.3800845E-2,-1.2788327E-1,-2.0615247E-3,6.1075523E-2,-1.9851338E-2,3.040637E-2,2.6149007E-2,-1.627392E-2,6.640439E-3,3.0964224E-2,1.9534215E-2,-1.8386517E-2,-4.9073406E-2,-2.335048E-2,-8.997443E-3,1.39155155E-2,-1.6791552E-2,1.3046858E-2],"categories":[],"categories_nodes":[],"categories_segments":[],"categories_sizes":[],"default_left":[1,0,0,1,0,0,0,0,1,0,0,1,0,0,1,0,0,0,0,0,0,0,0,0,0,0,0,0,0,0,0],"id":26,"left_children":[1,3,5,7,9,11,13,15,17,19,21,23,25,27,29,-1,-1,-1,-1,-1,-1,-1,-1,-1,-1,-1,-1,-1,-1,-1,-1],"loss_changes":[1.3148395E2,3.9278687E1,1.0710309E2,1.2165831E1,2.3863968E1,4.6168243E1,7.5728745E1,8.54663E0,9.436923E0,8.323003E0,2.1534622E1,2.524863E1,2.2951202E1,5.107742E1,3.667706E1,0E0,0E0,0E0,0E0,0E0,0E0,0E0,0E0,0E0,0E0,0E0,0E0,0E0,0E0,0E0,0E0],"parents":[2147483647,0,0,1,1,2,2,3,3,4,4,5,5,6,6,7,7,8,8,9,9,10,10,11,11,12,12,13,13,14,14],"right_children":[2,4,6,8,10,12,14,16,18,20,22,24,26,28,30,-1,-1,-1,-1,-1,-1,-1,-1,-1,-1,-1,-1,-1,-1,-1,-1],"split_conditions":[2.5561616E-1,1.24515E4,9.2053336E-1,3.434931E-2,2.0021942E-1,9.941208E-1,1.8322507E-1,1.66848E0,9.0727E-2,5.4E3,-4.231E3,1.2020815E1,3.0518395E-1,3.861923E-1,-1.014E3,-2.0615247E-3,6.1075523E-2,-1.9851338E-2,3.040637E-2,2.6149007E-2,-1.627392E-2,6.640439E-3,3.0964224E-2,1.9534215E-2,-1.8386517E-2,-4.9073406E-2,-2.335048E-2,-8.997443E-3,1.39155155E-2,-1.6791552E-2,1.3046858E-2],"split_indices":[13,1,37,13,5,57,11,8,73,93,9,41,5,5,46,0,0,0,0,0,0,0,0,0,0,0,0,0,0,0,0],"split_type":[0,0,0,0,0,0,0,0,0,0,0,0,0,0,0,0,0,0,0,0,0,0,0,0,0,0,0,0,0,0,0],"sum_hessian":[1.2369138E4,2.700473E3,9.668665E3,4.1519244E2,2.2852805E3,2.5104858E3,7.158179E3,5.3720093E1,3.6147235E2,2.1463345E2,2.070647E3,6.093434E2,1.9011425E3,4.441657E3,2.716522E3,2.6522938E1,2.7197155E1,3.3489075E2,2.658161E1,4.3249474E1,1.7138399E2,4.4230264E2,1.6283444E3,3.0020175E2,3.0914166E2,4.3312445E2,1.468018E3,1.1542872E3,3.28737E3,2.2957705E3,4.2075153E2],"tree_param":{"num_deleted":"0","num_feature":"100","num_nodes":"31","size_leaf_vector":"1"}},{"base_weights":[1.5055184E-3,3.2391306E-2,-3.7486604E-1,6.916245E-1,1.816811E-2,-8.120593E-2,-4.439844E-1,-0E0,8.280697E-1,2.6002672E-1,-1.654564E-2,-1.9546117E-1,2.3475045E-1,-2.402359E-3,-4.5953576E-2,8.302394E-2,-0E0,6.9792853E-3,3.7223563E-2,-1.8797487E-2,3.5177334E-3,7.793091E-3,-3.1194123E-2,-1.710421E-2,4.293151E-2],"categories":[],"categories_nodes":[],"categories_segments":[],"categories_sizes":[],"default_left":[1,0,0,0,0,0,0,0,1,0,0,0,0,0,0,0,0,0,0,0,0,0,0,0,0],"id":27,"left_children":[1,3,5,7,9,11,13,-1,15,17,19,21,23,-1,-1,-1,-1,-1,-1,-1,-1,-1,-1,-1,-1],"loss_changes":[1.427801E2,1.0525421E2,1.7306778E1,2.4207893E1,9.463626E1,7.2390704E0,1.2125595E1,0E0,8.125397E0,3.4050217E1,9.6803986E1,6.5547323E0,5.81452E0,0E0,0E0,0E0,0E0,0E0,0E0,0E0,0E0,0E0,0E0,0E0,0E0],"parents":[2147483647,0,0,1,1,2,2,3,3,4,4,5,5,6,6,8,8,9,9,10,10,11,11,12,12],"right_children":[2,4,6,8,10,12,14,-1,16,18,20,22,24,-1,-1,-1,-1,-1,-1,-1,-1,-1,-1,-1,-1],"split_conditions":[6.675768E-1,1.1807172E-1,6.0770076E-2,1.232386E1,9.806832E-1,3.4275E3,2.3273839E-1,-0E0,1.07E3,2.9708874E-1,3.20524E-1,6.543677E-2,1.2814179E1,-2.402359E-3,-4.5953576E-2,8.302394E-2,-0E0,6.9792853E-3,3.7223563E-2,-1.8797487E-2,3.5177334E-3,7.793091E-3,-3.1194123E-2,-1.710421E-2,4.293151E-2],"split_indices":[12,12,95,98,57,38,13,0,45,33,33,19,98,0,0,0,0,0,0,0,0,0,0,0,0],"split_type":[0,0,0,0,0,0,0,0,0,0,0,0,0,0,0,0,0,0,0,0,0,0,0,0,0],"sum_hessian":[1.2340835E4,1.1417498E4,9.2333685E2,2.2976294E2,1.1187735E4,1.8597151E2,7.3736536E2,3.6477455E1,1.9328548E2,1.4070697E3,9.780665E3,1.4453084E2,4.1440674E1,7.57061E1,6.6165924E2,1.8059915E2,1.2686335E1,6.0370685E2,8.0336285E2,2.2315828E3,7.5490825E3,4.222405E1,1.0230679E2,1.0889268E1,3.0551407E1],"tree_param":{"num_deleted":"0","num_feature":"100","num_nodes":"25","size_leaf_vector":"1"}},{"base_weights":[-8.673435E-3,2.8762285E-2,-2.9557097E-1,5.600766E-2,-2.7634513E-1,-1.1359258E-1,-3.9459944E-1,2.3157286E-2,4.0590432E-1,-5.646218E-1,-3.2970615E-2,-5.281818E-2,-3.9682172E-2,-1.02850065E-1,-4.4003546E-1,1.8775328E-4,3.9662454E-2,6.243883E-2,1.1606549E-2,2.3384368E-4,-5.5398047E-2,-1.4919164E-2,2.335798E-2,-2.6396984E-2,2.257043E-3,-4.1413963E-2,4.735131E-3,-4.362025E-2,-0E0],"categories":[],"categories_nodes":[],"categories_segments":[],"categories_sizes":[],"default_left":[1,0,0,0,1,1,0,1,0,0,0,0,0,0,0,0,0,0,0,0,0,0,0,0,0,0,0,0,0],"id":28,"left_children":[1,3,5,7,9,11,13,15,17,19,21,23,-1,25,27,-1,-1,-1,-1,-1,-1,-1,-1,-1,-1,-1,-1,-1,-1],"loss_changes":[1.3357881E2,9.051286E1,2.4266418E1,1.1445864E2,6.0848534E1,8.459719E0,1.046582E1,7.6402306E1,5.945717E1,6.685318E0,1.749769E1,8.611275E0,0E0,8.402346E0,6.950241E0,0E0,0E0,0E0,0E0,0E0,0E0,0E0,0E0,0E0,0E0,0E0,0E0,0E0,0E0],"parents":[2147483647,0,0,1,1,2,2,3,3,4,4,5,5,6,6,7,7,8,8,9,9,10,10,11,11,13,13,14,14],"right_children":[2,4,6,8,10,12,14,16,18,20,22,24,-1,26,28,-1,-1,-1,-1,-1,-1,-1,-1,-1,-1,-1,-1,-1,-1],"split_conditions":[6.86947E-1,9.6454546E-2,4.5789954E-1,7.8789845E-2,1.0576614E-1,1.35E4,1.7081274E1,4.9526253E-1,7.958E-2,7.7594584E-1,1.8341143E0,2.8310534E-1,-3.9682172E-2,5.062783E-1,2E0,1.8775328E-4,3.9662454E-2,6.243883E-2,1.1606549E-2,2.3384368E-4,-5.5398047E-2,-1.4919164E-2,2.335798E-2,-2.6396984E-2,2.257043E-3,-4.1413963E-2,4.735131E-3,-4.362025E-2,-0E0],"split_indices":[13,2,14,2,2,93,50,73,2,57,8,5,0,5,21,0,0,0,0,0,0,0,0,0,0,0,0,0,0],"split_type":[0,0,0,0,0,0,0,0,0,0,0,0,0,0,0,0,0,0,0,0,0,0,0,0,0,0,0,0,0],"sum_hessian":[1.2361444E4,1.0932981E4,1.4284633E3,1.004996E4,8.8302124E2,5.180642E2,9.103991E2,9.20135E3,8.4861017E2,3.9491528E2,4.8810596E2,4.4674875E2,7.131548E1,1.3344691E2,7.7695215E2,8.74932E3,4.5202917E2,4.3526535E2,4.1334482E2,1.1298535E1,3.8361676E2,3.4596957E2,1.4213637E2,1.1599747E2,3.3075128E2,4.240447E1,9.104244E1,7.349099E2,4.204225E1],"tree_param":{"num_deleted":"0","num_feature":"100","num_nodes":"29","size_leaf_vector":"1"}},{"base_weights":[6.65647E-4,4.232035E-2,-1.9512123E-1,-1.0754501E-1,9.77342E-2,-4.893779E-2,-2.8229627E-1,-3.8493118E-1,-5.71302E-2,-3.051167E-2,1.8406041E-1,2.4288063E-1,-1.1041567E-1,-3.0327076E-1,3.1550065E-1,1.0438168E-3,-4.16188E-2,1.4744868E-2,-9.844035E-3,3.8157282E-3,-2.1674002E-2,4.523999E-2,1.0235156E-2,3.2830004E-2,-2.0678341E-2,3.7529383E-2,-1.4985524E-2,-2.3696313E-2,-5.1004894E-2,-9.64862E-3,5.758818E-2],"categories":[],"categories_nodes":[],"categories_segments":[],"categories_sizes":[],"default_left":[0,1,0,0,0,0,1,0,0,0,0,0,0,1,0,0,0,0,0,0,0,0,0,0,0,0,0,0,0,0,0],"id":29,"left_children":[1,3,5,7,9,11,13,15,17,19,21,23,25,27,29,-1,-1,-1,-1,-1,-1,-1,-1,-1,-1,-1,-1,-1,-1,-1,-1],"loss_changes":[1.0038499E2,8.475163E1,2.6554466E1,3.7106316E1,8.303646E1,1.468663E1,1.7485764E1,1.0340908E1,2.3591288E1,4.2940464E1,9.800569E1,7.6639233E0,1.700076E1,1.3060165E1,7.3062735E0,0E0,0E0,0E0,0E0,0E0,0E0,0E0,0E0,0E0,0E0,0E0,0E0,0E0,0E0,0E0,0E0],"parents":[2147483647,0,0,1,1,2,2,3,3,4,4,5,5,6,6,7,7,8,8,9,9,10,10,11,11,12,12,13,13,14,14],"right_children":[2,4,6,8,10,12,14,16,18,20,22,24,26,28,30,-1,-1,-1,-1,-1,-1,-1,-1,-1,-1,-1,-1,-1,-1,-1,-1],"split_conditions":[6.557329E-1,1.67985E4,4.5610973E-1,-8.3E1,4.6613924E-2,4.0080678E-2,1.28975E0,7.532842E-1,2.4853556E-1,3.9298058E-2,4.9048413E-2,7.9313726E0,9.333995E-2,7.498689E-1,2.4423579E-2,1.0438168E-3,-4.16188E-2,1.4744868E-2,-9.844035E-3,3.8157282E-3,-2.1674002E-2,4.523999E-2,1.0235156E-2,3.2830004E-2,-2.0678341E-2,3.7529383E-2,-1.4985524E-2,-2.3696313E-2,-5.1004894E-2,-9.64862E-3,5.758818E-2],"split_indices":[13,1,14,45,2,11,90,89,14,2,2,19,94,13,54,0,0,0,0,0,0,0,0,0,0,0,0,0,0,0,0],"split_type":[0,0,0,0,0,0,0,0,0,0,0,0,0,0,0,0,0,0,0,0,0,0,0,0,0,0,0,0,0,0,0],"sum_hessian":[1.2340535E4,1.0191078E4,2.1494568E3,2.7368928E3,7.4541855E3,8.1813104E2,1.3313258E3,4.0552432E2,2.3313684E3,2.9892676E3,4.464918E3,1.3137271E2,6.867583E2,1.2938652E3,3.7460587E1,4.5784393E1,3.5973993E2,4.0975137E2,1.921617E3,2.1995598E3,7.897079E2,8.934359E2,3.571482E3,1.1294421E2,1.8428501E1,5.053197E1,6.362263E2,1.0830488E3,2.1081648E2,1.4056187E1,2.3404402E1],"tree_param":{"num_deleted":"0","num_feature":"100","num_nodes":"31","size_leaf_vector":"1"}},{"base_weights":[-8.420488E-3,3.0757582E-2,-2.1691984E-1,5.9074014E-1,1.6948864E-2,3.4176547E-2,-2.6536182E-1,9.1232485E-1,3.6992547E-1,-7.6166745E-3,3.0400345E-1,-5.7547E-2,4.7732225E-1,-1.9731425E-1,-4.94926E-1,-0E0,9.566233E-2,4.2045534E-2,-5.42549E-3,-1.5962781E-2,3.3019558E-3,2.0011842E-2,5.7106152E-2,-1.6611733E-2,2.1881584E-2,6.2457398E-2,-0E0,-9.65476E-3,-3.3107422E-2,-6.5207793E-3,-5.6604207E-2],"categories":[],"categories_nodes":[],"categories_segments":[],"categories_sizes":[],"default_left":[1,0,0,0,0,0,1,0,0,0,0,0,0,0,0,0,0,0,0,0,0,0,0,0,0,0,0,0,0,0,0],"id":30,"left_children":[1,3,5,7,9,11,13,15,17,19,21,23,25,27,29,-1,-1,-1,-1,-1,-1,-1,-1,-1,-1,-1,-1,-1,-1,-1,-1],"loss_changes":[1.0122617E2,7.863049E1,2.450354E1,1.1626938E1,7.2247086E1,1.4086384E1,2.3350784E1,6.3447495E0,6.4488964E0,6.4733086E1,1.9325111E1,9.223343E0,6.4945736E0,1.7514313E1,1.4355232E1,0E0,0E0,0E0,0E0,0E0,0E0,0E0,0E0,0E0,0E0,0E0,0E0,0E0,0E0,0E0,0E0],"parents":[2147483647,0,0,1,1,2,2,3,3,4,4,5,5,6,6,7,7,8,8,9,9,10,10,11,11,12,12,13,13,14,14],"right_children":[2,4,6,8,10,12,14,16,18,20,22,24,26,28,30,-1,-1,-1,-1,-1,-1,-1,-1,-1,-1,-1,-1,-1,-1,-1,-1],"split_conditions":[4.9900174E-1,1.1807172E-1,5.106996E-2,7.690541E-2,1.396E0,5.99E0,6.3E3,1.5654306E-1,8.058676E-2,8.542333E-1,2E0,1.0054E0,1.1780822E1,6.975679E-1,2.4446175E0,-0E0,9.566233E-2,4.2045534E-2,-5.42549E-3,-1.5962781E-2,3.3019558E-3,2.0011842E-2,5.7106152E-2,-1.6611733E-2,2.1881584E-2,6.2457398E-2,-0E0,-9.65476E-3,-3.3107422E-2,-6.5207793E-3,-5.6604207E-2],"split_indices":[12,12,95,12,7,8,93,18,2,37,21,37,15,12,53,0,0,0,0,0,0,0,0,0,0,0,0,0,0,0,0],"split_type":[0,0,0,0,0,0,0,0,0,0,0,0,0,0,0,0,0,0,0,0,0,0,0,0,0,0,0,0,0,0,0],"sum_hessian":[1.2321234E4,1.0367595E4,1.9536401E3,2.374901E2,1.01301045E4,3.0795297E2,1.6456871E3,8.236718E1,1.5512292E2,9.330323E3,7.997812E2,2.5594939E2,5.2003593E1,1.288734E3,3.569532E2,1.1032915E1,7.133427E1,1.3641896E2,1.8703955E1,1.9546194E3,7.3757036E3,6.2943945E2,1.7034178E2,1.898258E2,6.612359E1,3.8159775E1,1.3843818E1,8.146859E2,4.7404807E2,7.79931E1,2.7896008E2],"tree_param":{"num_deleted":"0","num_feature":"100","num_nodes":"31","size_leaf_vector":"1"}},{"base_weights":[-5.009438E-3,3.4576006E-2,-2.2105943E-1,-1.1528922E-1,8.633287E-2,5.343475E-2,-2.9147705E-1,-5.5345934E-2,-2.862483E-1,-4.0325847E-2,1.7782041E-1,1.1884704E-1,-3.5393026E-2,-1.9275041E-1,-4.4061953E-1,2.5415555E-2,-8.617118E-3,-3.7525956E-2,-1.3661468E-2,-7.489185E-3,1.903735E-2,2.1654027E-2,-1.2314674E-2,-4.1546295E-3,2.829201E-2,-5.3384188E-3,-3.3098325E-2,-4.810155E-2,-4.2509087E-3],"categories":[],"categories_nodes":[],"categories_segments":[],"categories_sizes":[],"default_left":[1,1,0,1,0,1,0,0,0,1,0,1,0,0,0,0,0,0,0,0,0,0,0,0,0,0,0,0,0],"id":31,"left_children":[1,3,5,7,9,11,13,15,17,19,21,23,-1,25,27,-1,-1,-1,-1,-1,-1,-1,-1,-1,-1,-1,-1,-1,-1],"loss_changes":[1.0549956E2,8.044144E1,3.766217E1,2.6211327E1,8.991391E1,1.0619122E1,2.0291916E1,2.2969568E1,8.877144E0,3.0438423E1,7.233673E1,1.1032839E1,0E0,1.916426E1,1.4733345E1,0E0,0E0,0E0,0E0,0E0,0E0,0E0,0E0,0E0,0E0,0E0,0E0,0E0,0E0],"parents":[2147483647,0,0,1,1,2,2,3,3,4,4,5,5,6,6,7,7,8,8,9,9,10,10,11,11,13,13,14,14],"right_children":[2,4,6,8,10,12,14,16,18,20,22,24,-1,26,28,-1,-1,-1,-1,-1,-1,-1,-1,-1,-1,-1,-1,-1,-1],"split_conditions":[4.9900174E-1,1.6524E4,2.8224844E-1,3.456E3,5.105714E-2,1.36125E4,2.1431293E-1,5.002405E-2,3.8303083E-1,3.7444478E-1,9.220367E-2,2.64465E4,-3.5393026E-2,6.9467145E-1,2E0,2.5415555E-2,-8.617118E-3,-3.7525956E-2,-1.3661468E-2,-7.489185E-3,1.903735E-2,2.1654027E-2,-1.2314674E-2,-4.1546295E-3,2.829201E-2,-5.3384188E-3,-3.3098325E-2,-4.810155E-2,-4.2509087E-3],"split_indices":[12,1,14,93,3,93,16,16,33,33,2,1,0,12,21,0,0,0,0,0,0,0,0,0,0,0,0,0,0],"split_type":[0,0,0,0,0,0,0,0,0,0,0,0,0,0,0,0,0,0,0,0,0,0,0,0,0,0,0,0,0],"sum_hessian":[1.2266628E4,1.0362737E4,1.9038905E3,2.645327E3,7.7174106E3,3.8181848E2,1.522072E3,1.9768867E3,6.684402E2,3.226887E3,4.490524E3,3.4111426E2,4.070422E1,9.364231E2,5.856489E2,1.8551285E2,1.7913739E3,3.5584055E2,3.1259964E2,2.7917568E3,4.3513004E2,3.853363E3,6.371608E2,1.7536694E2,1.6574731E2,5.1739703E2,4.1902606E2,4.9091724E2,9.473171E1],"tree_param":{"num_deleted":"0","num_feature":"100","num_nodes":"29","size_leaf_vector":"1"}},{"base_weights":[8.2866364E-4,8.4594E-2,-1.0338766E-1,-2.5311574E-1,1.0611188E-1,-1.4602987E-1,1.1222157E-1,2.4566337E-2,-3.1570846E-1,3.132382E-1,7.208653E-2,-1.00007184E-1,-3.452194E-1,-2.2242123E-2,3.225324E-1,-1.113386E-2,-4.639003E-2,3.5087366E-2,-5.0007286E-3,3.3712357E-2,4.4663753E-3,-1.1217349E-2,4.286797E-2,7.8244805E-3,-3.4891963E-2,1.9922169E-2,-1.5890395E-2,5.410602E-2,1.4491992E-2],"categories":[],"categories_nodes":[],"categories_segments":[],"categories_sizes":[],"default_left":[0,0,1,0,0,1,0,0,0,1,0,1,0,0,0,0,0,0,0,0,0,0,0,0,0,0,0,0,0],"id":32,"left_children":[1,3,5,7,9,11,13,-1,15,17,19,21,23,25,27,-1,-1,-1,-1,-1,-1,-1,-1,-1,-1,-1,-1,-1,-1],"loss_changes":[1.0705095E2,4.9357677E1,5.0348854E1,1.3735619E1,4.4100853E1,4.048049E1,2.611842E1,0E0,1.0828381E1,2.0191277E1,3.7904476E1,3.8755318E1,9.9030075E0,1.8805792E1,1.2645069E1,0E0,0E0,0E0,0E0,0E0,0E0,0E0,0E0,0E0,0E0,0E0,0E0,0E0,0E0],"parents":[2147483647,0,0,1,1,2,2,3,3,4,4,5,5,6,6,8,8,9,9,10,10,11,11,12,12,13,13,14,14],"right_children":[2,4,6,8,10,12,14,-1,16,18,20,22,24,26,28,-1,-1,-1,-1,-1,-1,-1,-1,-1,-1,-1,-1,-1,-1],"split_conditions":[5.171557E-1,1.23236105E-1,9.3542147E-1,7.764603E-2,9.9167794E-1,7.0449734E-1,1.67075E-1,2.4566337E-2,6.563E-2,1.755E4,5.680734E-2,2.4875623E-1,2.4636744E-1,8.966552E-1,8.675955E3,-1.113386E-2,-4.639003E-2,3.5087366E-2,-5.0007286E-3,3.3712357E-2,4.4663753E-3,-1.1217349E-2,4.286797E-2,7.8244805E-3,-3.4891963E-2,1.9922169E-2,-1.5890395E-2,5.410602E-2,1.4491992E-2],"split_indices":[13,77,37,13,57,13,4,0,95,93,13,83,12,89,86,0,0,0,0,0,0,0,0,0,0,0,0,0,0],"split_type":[0,0,0,0,0,0,0,0,0,0,0,0,0,0,0,0,0,0,0,0,0,0,0,0,0,0,0,0,0],"sum_hessian":[1.2252978E4,6.8071143E3,5.4458633E3,3.9587503E2,6.4112393E3,4.55839E3,8.874729E2,3.6045418E1,3.5982962E2,8.854049E2,5.5258345E3,3.7223408E3,8.3604944E2,5.382456E2,3.492273E2,1.8228766E2,1.7754196E2,7.686539E2,1.1675103E2,4.2430795E2,5.1015264E3,3.609543E3,1.1279785E2,3.92295E1,7.9681995E2,1.9940706E2,3.3883853E2,1.2708743E2,2.2213988E2],"tree_param":{"num_deleted":"0","num_feature":"100","num_nodes":"29","size_leaf_vector":"1"}},{"base_weights":[2.2440453E-3,-1.7748589E-2,3.8966382E-1,1.9364186E-2,-1.9976507E-1,6.211801E-1,1.3869293E-1,-8.529567E-2,8.7835215E-2,-2.6372275E-1,2.101699E-2,8.361924E-1,2.1537866E-1,1.9323649E-2,5.025553E-1,9.032312E-3,-1.2679169E-2,-2.1278271E-3,1.865087E-2,-2.8720994E-2,4.0440466E-3,2.3006449E-2,-1.4104885E-2,-0E0,8.5612155E-2,6.085624E-2,-0E0,-4.6850857E-3,5.764226E-2,6.0271777E-2,-0E0],"categories":[],"categories_nodes":[],"categories_segments":[],"categories_sizes":[],"default_left":[1,1,1,1,1,1,1,0,1,0,1,0,0,0,0,0,0,0,0,0,0,0,0,0,0,0,0,0,0,0,0],"id":33,"left_children":[1,3,5,7,9,11,13,15,17,19,21,23,25,27,29,-1,-1,-1,-1,-1,-1,-1,-1,-1,-1,-1,-1,-1,-1,-1,-1],"loss_changes":[9.6026855E1,7.931138E1,3.280597E1,6.949478E1,2.8729134E1,2.2976517E1,1.1955294E1,3.420643E1,7.17814E1,2.0177063E1,1.7434807E1,1.33667755E1,1.0302099E1,1.161432E1,6.063574E0,0E0,0E0,0E0,0E0,0E0,0E0,0E0,0E0,0E0,0E0,0E0,0E0,0E0,0E0,0E0,0E0],"parents":[2147483647,0,0,1,1,2,2,3,3,4,4,5,5,6,6,7,7,8,8,9,9,10,10,11,11,12,12,13,13,14,14],"right_children":[2,4,6,8,10,12,14,16,18,20,22,24,26,28,30,-1,-1,-1,-1,-1,-1,-1,-1,-1,-1,-1,-1,-1,-1,-1,-1],"split_conditions":[1.0027976E0,8.5275E3,1.0429223E4,2.11095E4,8.97614E2,3.5E2,1.9080563E-1,3.4794521E0,1.1385978E0,1.2392621E0,2.95E2,1.8697593E-1,3.0711973E-1,-2.15E2,1.1865753E1,9.032312E-3,-1.2679169E-2,-2.1278271E-3,1.865087E-2,-2.8720994E-2,4.0440466E-3,2.3006449E-2,-1.4104885E-2,-0E0,8.5612155E-2,6.085624E-2,-0E0,-4.6850857E-3,5.764226E-2,6.0271777E-2,-0E0],"split_indices":[37,93,86,1,56,27,83,15,7,90,26,33,13,46,15,0,0,0,0,0,0,0,0,0,0,0,0,0,0,0,0],"split_type":[0,0,0,0,0,0,0,0,0,0,0,0,0,0,0,0,0,0,0,0,0,0,0,0,0,0,0,0,0,0,0],"sum_hessian":[1.2263104E4,1.1662088E4,6.010164E2,9.681167E3,1.9809204E3,3.0159833E2,2.9941806E2,3.8135798E3,5.8675874E3,1.5436127E3,4.3730765E2,1.8783534E2,1.1376297E2,2.3666913E2,6.2748947E1,8.0180493E2,3.011775E3,2.9193445E3,2.948243E3,1.3694316E3,1.7418106E2,1.9450359E2,2.4280405E2,1.3413101E1,1.7442224E2,3.064807E1,8.31149E1,2.1441571E2,2.2253424E1,5.0736458E1,1.2012488E1],"tree_param":{"num_deleted":"0","num_feature":"100","num_nodes":"31","size_leaf_vector":"1"}},{"base_weights":[1.9823518E-3,2.7682367E-1,-2.395947E-2,8.655876E-2,4.656262E-1,-1.7392674E-1,2.1336889E-2,3.8173446E-1,-6.6774935E-2,1.1274414E0,3.8120717E-1,1.7311685E-1,-2.0680346E-1,7.353715E-2,-1.4206798E-1,-1.446481E-2,4.442479E-2,1.8968696E-2,-2.2949355E-2,1.328263E-2,1.3738452E-1,5.5102315E-2,1.7915728E-2,4.0007554E-2,-0E0,-3.5395242E-2,-1.42258E-2,1.3391357E-2,-9.025788E-3,-1.5672067E-2,4.8898473E-2],"categories":[],"categories_nodes":[],"categories_segments":[],"categories_sizes":[],"default_left":[0,1,0,1,0,0,0,0,1,0,0,0,0,1,0,0,0,0,0,0,0,0,0,0,0,0,0,0,0,0,0],"id":34,"left_children":[1,3,5,7,9,11,13,15,17,19,21,23,25,27,29,-1,-1,-1,-1,-1,-1,-1,-1,-1,-1,-1,-1,-1,-1,-1,-1],"loss_changes":[8.81143E1,3.662422E1,7.651632E1,2.5747314E1,2.2396019E1,3.0165878E1,7.325252E1,1.0610069E1,1.7557116E1,1.1460228E1,1.59461975E1,1.0462464E1,2.0851028E1,7.592677E1,3.280081E1,0E0,0E0,0E0,0E0,0E0,0E0,0E0,0E0,0E0,0E0,0E0,0E0,0E0,0E0,0E0,0E0],"parents":[2147483647,0,0,1,1,2,2,3,3,4,4,5,5,6,6,7,7,8,8,9,9,10,10,11,11,12,12,13,13,14,14],"right_children":[2,4,6,8,10,12,14,16,18,20,22,24,26,28,30,-1,-1,-1,-1,-1,-1,-1,-1,-1,-1,-1,-1,-1,-1,-1,-1],"split_conditions":[2.075694E0,1.679E-1,3.8289392E-1,1.39E2,1.4117374E-1,1.3659975E-1,3.0675322E-1,1E0,4.1360396E-1,6.327804E-2,4.7385E3,1.5189514E-1,1.1094061E0,2.967408E-1,1.5392616E0,-1.446481E-2,4.442479E-2,1.8968696E-2,-2.2949355E-2,1.328263E-2,1.3738452E-1,5.5102315E-2,1.7915728E-2,4.0007554E-2,-0E0,-3.5395242E-2,-1.42258E-2,1.3391357E-2,-9.025788E-3,-1.5672067E-2,4.8898473E-2],"split_indices":[53,4,5,30,51,13,11,22,13,54,93,95,90,12,11,0,0,0,0,0,0,0,0,0,0,0,0,0,0,0,0],"split_type":[0,0,0,0,0,0,0,0,0,0,0,0,0,0,0,0,0,0,0,0,0,0,0,0,0,0,0,0,0,0,0],"sum_hessian":[1.2254988E4,1.0589374E3,1.1196051E4,5.395571E2,5.193802E2,2.6050137E3,8.591037E3,1.861659E2,3.5339127E2,4.476501E1,4.7461517E2,2.1602965E2,2.3889841E3,6.525838E3,2.065199E3,2.184824E1,1.6431766E2,1.3433578E2,2.1905547E2,1.5826117E1,2.8938894E1,2.1622772E2,2.5838745E2,8.775936E1,1.282703E2,5.734728E2,1.8155114E3,4.657675E3,1.8681632E3,2.0015997E3,6.3599113E1],"tree_param":{"num_deleted":"0","num_feature":"100","num_nodes":"31","size_leaf_vector":"1"}},{"base_weights":[-0E0,5.535928E-2,-1.4056477E-1,1.2693417E-1,-3.769301E-2,2.5716308E-1,-1.7682913E-1,1.5552449E-1,-1.7274474E-1,-5.931631E-2,3.085055E-1,5.6025613E-2,5.3233135E-1,-7.63112E-2,-2.8973624E-1,-2.4940684E-2,1.663292E-2,-6.2496103E-3,-3.5661273E-2,-1.9814998E-3,-2.3246214E-2,4.8364155E-2,-0E0,1.9130774E-2,-1.3311281E-2,1.0914851E-2,6.874099E-2,-1.7939758E-2,5.517784E-3,5.417805E-3,-2.9893428E-2],"categories":[],"categories_nodes":[],"categories_segments":[],"categories_sizes":[],"default_left":[1,0,0,1,1,0,0,0,0,1,0,0,0,1,0,0,0,0,0,0,0,0,0,0,0,0,0,0,0,0,0],"id":35,"left_children":[1,3,5,7,9,11,13,15,17,19,21,23,25,27,29,-1,-1,-1,-1,-1,-1,-1,-1,-1,-1,-1,-1,-1,-1,-1,-1],"loss_changes":[9.504947E1,5.8797283E1,4.9866943E1,4.2871017E1,2.8051365E1,1.4095852E1,3.4887276E1,4.009104E1,8.104164E0,2.5110695E1,1.4818304E1,5.544492E0,6.610737E0,2.6507397E1,1.4777634E1,0E0,0E0,0E0,0E0,0E0,0E0,0E0,0E0,0E0,0E0,0E0,0E0,0E0,0E0,0E0,0E0],"parents":[2147483647,0,0,1,1,2,2,3,3,4,4,5,5,6,6,7,7,8,8,9,9,10,10,11,11,12,12,13,13,14,14],"right_children":[2,4,6,8,10,12,14,16,18,20,22,24,26,28,30,-1,-1,-1,-1,-1,-1,-1,-1,-1,-1,-1,-1,-1,-1,-1,-1],"split_conditions":[5.999607E-1,6E0,2.6582238E-1,5.6453824E-1,8.3333336E-2,2.8962E4,1.6341974E-1,5.976796E3,6.6E0,8.721E3,3.0842035E0,2.0787424E-1,5.31432E-1,1.1385978E0,2.3462691E0,-2.4940684E-2,1.663292E-2,-6.2496103E-3,-3.5661273E-2,-1.9814998E-3,-2.3246214E-2,4.8364155E-2,-0E0,1.9130774E-2,-1.3311281E-2,1.0914851E-2,6.874099E-2,-1.7939758E-2,5.517784E-3,5.417805E-3,-2.9893428E-2],"split_indices":[13,0,12,12,69,1,11,75,25,93,64,12,5,7,49,0,0,0,0,0,0,0,0,0,0,0,0,0,0,0,0],"split_type":[0,0,0,0,0,0,0,0,0,0,0,0,0,0,0,0,0,0,0,0,0,0,0,0,0,0,0,0,0,0,0],"sum_hessian":[1.2221248E4,8.781532E3,3.4397156E3,4.977227E3,3.8043052E3,2.777816E2,3.161934E3,4.554706E3,4.225207E2,3.5934001E3,2.1090504E2,1.7102472E2,1.0675686E2,1.6912158E3,1.4707183E3,2.0555646E2,4.34915E3,2.929317E2,1.2958899E2,3.0011182E3,5.9228204E2,1.27798805E2,8.310624E1,1.05175545E2,6.584918E1,4.218697E1,6.456989E1,9.250201E2,7.661957E2,9.975717E1,1.3709612E3],"tree_param":{"num_deleted":"0","num_feature":"100","num_nodes":"31","size_leaf_vector":"1"}},{"base_weights":[3.7710618E-3,-1.6740742E-1,4.1408263E-2,-1.2920348E-1,-4.5001975E-1,8.192455E-2,-1.1207014E-1,-2.0107019E-1,-2.226206E-2,-5.3690463E-1,-5.396477E-3,1.4330724E-1,-7.276843E-2,-1.3303915E-1,3.9445332E-1,-1.1915014E-2,-3.1668458E-2,2.4785727E-2,-8.742611E-3,-0E0,-5.5805754E-2,-3.3727693E-3,1.7220877E-2,8.85988E-3,-1.277299E-2,1.435645E-3,-1.8674817E-2,4.849729E-2,-4.2856443E-3],"categories":[],"categories_nodes":[],"categories_segments":[],"categories_sizes":[],"default_left":[0,0,0,1,0,1,0,1,0,0,0,0,0,0,0,0,0,0,0,0,0,0,0,0,0,0,0,0,0],"id":36,"left_children":[1,3,5,7,9,11,13,15,17,19,-1,21,23,25,27,-1,-1,-1,-1,-1,-1,-1,-1,-1,-1,-1,-1,-1,-1],"loss_changes":[7.852799E1,2.1793762E1,6.24475E1,1.44015045E1,6.8239174E0,7.586873E1,2.1921055E1,1.0118317E1,1.5961057E1,5.9714203E0,0E0,4.0641647E1,2.3770687E1,1.9899387E1,5.576952E0,0E0,0E0,0E0,0E0,0E0,0E0,0E0,0E0,0E0,0E0,0E0,0E0,0E0,0E0],"parents":[2147483647,0,0,1,1,2,2,3,3,4,4,5,5,6,6,7,7,8,8,9,9,11,11,12,12,13,13,14,14],"right_children":[2,4,6,8,10,12,14,16,18,20,-1,22,24,26,28,-1,-1,-1,-1,-1,-1,-1,-1,-1,-1,-1,-1,-1,-1],"split_conditions":[2.8310534E-1,1.21E1,3.5368448E-1,1.688E-1,7.636399E-1,2.9997355E-1,1.5392616E0,2.6282123E-1,6.806032E-2,1.5008518E-1,-5.396477E-3,-7.719E3,1.1063669E-1,4.0835884E-1,5.426639E-1,-1.1915014E-2,-3.1668458E-2,2.4785727E-2,-8.742611E-3,-0E0,-5.5805754E-2,-3.3727693E-3,1.7220877E-2,8.85988E-3,-1.277299E-2,1.435645E-3,-1.8674817E-2,4.849729E-2,-4.2856443E-3],"split_indices":[5,25,11,4,14,12,11,12,95,14,0,10,16,14,23,0,0,0,0,0,0,0,0,0,0,0,0,0,0],"split_type":[0,0,0,0,0,0,0,0,0,0,0,0,0,0,0,0,0,0,0,0,0,0,0,0,0,0,0,0,0],"sum_hessian":[1.2221871E4,2.1861694E3,1.0035701E4,1.9434032E3,2.4276628E2,7.9554287E3,2.0802727E3,1.1443048E3,7.990984E2,1.9128949E2,5.1476788E1,5.7074385E3,2.2479902E3,2.0077103E3,7.2562256E1,7.575365E2,3.867683E2,1.471736E2,6.519248E2,1.8119307E1,1.7317018E2,1.0159109E3,4.691528E3,6.022633E2,1.6457269E3,6.0190094E2,1.4058094E3,6.0489864E1,1.2072389E1],"tree_param":{"num_deleted":"0","num_feature":"100","num_nodes":"29","size_leaf_vector":"1"}},{"base_weights":[6.615998E-4,2.5903152E-2,-2.7491933E-1,-1.0970679E-1,6.965995E-2,-2.915777E-1,5.534698E-2,-5.188879E-2,-2.5806594E-1,-7.478013E-2,1.3191421E-1,-3.1354E-1,2.2304368E-1,1.4658997E-2,-9.934468E-3,-2.3296392E-3,-3.0779645E-2,1.2121651E-2,-1.1173192E-2,-1.3348239E-2,1.55824665E-2,-3.1354584E-2,6.40791E-3,-1.2280291E-3,5.3381655E-2],"categories":[],"categories_nodes":[],"categories_segments":[],"categories_sizes":[],"default_left":[1,1,1,1,1,1,0,0,1,0,0,1,0,0,0,0,0,0,0,0,0,0,0,0,0],"id":37,"left_children":[1,3,5,7,9,11,-1,13,15,17,19,21,23,-1,-1,-1,-1,-1,-1,-1,-1,-1,-1,-1,-1],"loss_changes":[8.4695496E1,6.668002E1,1.5218933E1,2.2557484E1,7.6828674E1,1.2167473E1,0E0,2.2028557E1,1.1051445E1,2.282684E1,5.462731E1,7.888054E0,4.768242E0,0E0,0E0,0E0,0E0,0E0,0E0,0E0,0E0,0E0,0E0,0E0,0E0],"parents":[2147483647,0,0,1,1,2,2,3,3,4,4,5,5,7,7,8,8,9,9,10,10,11,11,12,12],"right_children":[2,4,6,8,10,12,-1,14,16,18,20,22,24,-1,-1,-1,-1,-1,-1,-1,-1,-1,-1,-1,-1],"split_conditions":[7.032033E-1,1.6434E4,1.6469678E-5,2.592E3,4.5226667E-2,3.83157E3,5.534698E-2,2.0985453E1,2.5561616E-1,2.3273839E-1,1.0845555E1,4.7484E4,-1.387E3,1.4658997E-2,-9.934468E-3,-2.3296392E-3,-3.0779645E-2,1.2121651E-2,-1.1173192E-2,-1.3348239E-2,1.55824665E-2,-3.1354584E-2,6.40791E-3,-1.2280291E-3,5.3381655E-2],"split_indices":[14,1,67,93,3,31,0,50,13,13,6,85,46,0,0,0,0,0,0,0,0,0,0,0,0],"split_type":[0,0,0,0,0,0,0,0,0,0,0,0,0,0,0,0,0,0,0,0,0,0,0,0,0],"sum_hessian":[1.2249934E4,1.1236697E4,1.01323645E3,2.7244573E3,8.51224E3,1.0018119E3,1.1424594E1,1.9799722E3,7.444849E2,2.5512307E3,5.9610093E3,9.683243E2,3.3487583E1,3.9328226E2,1.58669E3,1.7924956E2,5.652354E2,4.3860165E2,2.1126292E3,6.366557E2,5.3243535E3,9.2969006E2,3.8634216E1,1.9850605E1,1.3636977E1],"tree_param":{"num_deleted":"0","num_feature":"100","num_nodes":"25","size_leaf_vector":"1"}},{"base_weights":[6.5761073E-3,-2.2781783E-1,2.943473E-2,-2.7050218E-1,5.7002627E-3,-1.1242733E-1,7.0363976E-2,-3.1355512E-1,-2.167278E-4,2.3894109E-1,-1.7869689E-2,-1.473447E-1,2.3564817E-1,3.550475E-2,2.5264055E-1,-1.4104578E-2,-3.6794305E-2,6.319495E-2,-0E0,-2.5011951E-2,-4.229454E-3,3.6038604E-2,-1.8111426E-2,-2.7293502E-3,1.25175845E-2,-1.0107537E-2,3.2039717E-2],"categories":[],"categories_nodes":[],"categories_segments":[],"categories_sizes":[],"default_left":[0,0,0,1,0,1,1,1,0,0,0,0,0,1,0,0,0,0,0,0,0,0,0,0,0,0,0],"id":38,"left_children":[1,3,5,7,9,11,13,15,-1,17,-1,19,21,23,25,-1,-1,-1,-1,-1,-1,-1,-1,-1,-1,-1,-1],"loss_changes":[6.5250786E1,1.1446091E1,6.491865E1,9.860329E0,7.998279E0,3.036076E1,5.4500725E1,8.094376E0,0E0,7.4998956E0,0E0,2.6660717E1,1.5058946E1,4.61903E1,4.4246193E1,0E0,0E0,0E0,0E0,0E0,0E0,0E0,0E0,0E0,0E0,0E0,0E0],"parents":[2147483647,0,0,1,1,2,2,3,3,4,4,5,5,6,6,7,7,9,9,11,11,12,12,13,13,14,14],"right_children":[2,4,6,8,10,12,14,16,-1,18,-1,20,22,24,26,-1,-1,-1,-1,-1,-1,-1,-1,-1,-1,-1,-1],"split_conditions":[1E0,-8.4E2,2.6864368E-1,1.264E0,6.109716E-1,9E3,1.1341443E0,1.7560598E-1,-2.167278E-4,1.3496355E4,-1.7869689E-2,1.8E3,8.0549985E-2,1.8894E-1,5.263158E-2,-1.4104578E-2,-3.6794305E-2,6.319495E-2,-0E0,-2.5011951E-2,-4.229454E-3,3.6038604E-2,-1.8111426E-2,-2.7293502E-3,1.25175845E-2,-1.0107537E-2,3.2039717E-2],"split_indices":[22,9,33,7,13,63,90,14,0,86,0,35,95,4,69,0,0,0,0,0,0,0,0,0,0,0,0],"split_type":[0,0,0,0,0,0,0,0,0,0,0,0,0,0,0,0,0,0,0,0,0,0,0,0,0,0,0],"sum_hessian":[1.2253917E4,1.0730503E3,1.1180866E4,9.152641E2,1.5778615E2,2.4868652E3,8.694001E3,7.795148E2,1.3574931E2,7.695174E1,8.083442E1,2.270662E3,2.1620305E2,7.317416E3,1.3765848E3,2.6577548E2,5.137393E2,1.9841953E1,5.7109783E1,1.0390747E3,1.2315875E3,1.6600217E2,5.0200882E1,4.388362E3,2.9290547E3,2.6236676E2,1.1142181E3],"tree_param":{"num_deleted":"0","num_feature":"100","num_nodes":"27","size_leaf_vector":"1"}},{"base_weights":[-6.177134E-4,1.0525082E-1,-5.702476E-2,1.273204E-1,-3.3670115E-1,-2.1718018E-2,-2.304584E-1,3.8343132E-1,8.980459E-2,-4.1006014E-1,1.0516919E-2,-1.5876876E-1,2.4266882E-2,1.15399435E-1,-2.6485857E-1,5.8596116E-2,1.6479546E-2,5.2101687E-3,3.57035E-2,-4.8524983E-2,-5.2497895E-3,1.1226759E-2,-1.8222708E-2,6.1320882E-2,1.3587424E-3,-2.5895564E-2,2.4409862E-2,-0E0,-2.8568909E-2],"categories":[],"categories_nodes":[],"categories_segments":[],"categories_sizes":[],"default_left":[0,1,1,0,1,1,0,0,1,0,0,0,0,0,0,0,0,0,0,0,0,0,0,0,0,0,0,0,0],"id":39,"left_children":[1,3,5,7,9,11,13,15,17,19,-1,21,23,25,27,-1,-1,-1,-1,-1,-1,-1,-1,-1,-1,-1,-1,-1,-1],"loss_changes":[7.28121E1,4.105867E1,4.821445E1,3.7366524E1,7.6015034E0,4.2296482E1,1.6519684E1,2.2268204E1,3.4101692E1,4.890171E0,0E0,1.6506859E1,2.8965462E1,7.198747E0,1.1702553E1,0E0,0E0,0E0,0E0,0E0,0E0,0E0,0E0,0E0,0E0,0E0,0E0,0E0,0E0],"parents":[2147483647,0,0,1,1,2,2,3,3,4,4,5,5,6,6,7,7,8,8,9,9,11,11,12,12,13,13,14,14],"right_children":[2,4,6,8,10,12,14,16,18,20,-1,22,24,26,28,-1,-1,-1,-1,-1,-1,-1,-1,-1,-1,-1,-1,-1,-1],"split_conditions":[7.988796E-2,6.8399376E-1,6.585069E-1,2.7278295E0,4.1160533E-1,1.6524E4,1.3421492E1,7.38782E0,9.680886E-1,2.6E0,1.0516919E-2,1.8195911E-1,1.189258E-1,2.4974975E-1,3.981174E-1,5.8596116E-2,1.6479546E-2,5.2101687E-3,3.57035E-2,-4.8524983E-2,-5.2497895E-3,1.1226759E-2,-1.8222708E-2,6.1320882E-2,1.3587424E-3,-2.5895564E-2,2.4409862E-2,-0E0,-2.8568909E-2],"split_indices":[11,12,13,53,33,1,50,49,37,25,0,14,51,73,12,0,0,0,0,0,0,0,0,0,0,0,0,0,0],"split_type":[0,0,0,0,0,0,0,0,0,0,0,0,0,0,0,0,0,0,0,0,0,0,0,0,0,0,0,0,0],"sum_hessian":[1.2197751E4,4.2222275E3,7.975524E3,4.031966E3,1.902614E2,6.6456343E3,1.3298895E3,4.976625E2,3.5343035E3,1.6885736E2,2.1404043E1,1.6785995E3,4.9670347E3,1.1210557E2,1.2177839E3,2.1990025E2,2.7776224E2,3.1724443E3,3.6185904E2,1.2229325E2,4.6564114E1,1.7518819E2,1.5034114E3,6.541221E1,4.9016226E3,2.3582441E1,8.852313E1,1.6124852E2,1.0565354E3],"tree_param":{"num_deleted":"0","num_feature":"100","num_nodes":"29","size_leaf_vector":"1"}},{"base_weights":[-4.3943096E-3,-1.8758102E-1,2.8213533E-2,-6.780251E-2,-3.0970114E-1,-2.0429398E-1,4.9602542E-2,1.388989E-1,-1.3372084E-1,5.7559155E-2,-3.3043757E-1,3.6836684E-2,-4.3714216E-1,3.769179E-1,1.9849628E-2,5.145568E-2,4.137427E-3,-5.6011113E-3,-3.6076613E-2,2.4476925E-2,-3.3471286E-2,1.7958503E-2,-2.2017209E-2,1.1775126E-2,-4.34074E-2,5.793081E-2,1.7987328E-2,-1.0566231E-3,1.9299975E-2],"categories":[],"categories_nodes":[],"categories_segments":[],"categories_sizes":[],"default_left":[0,0,1,0,0,0,0,0,1,0,0,1,0,0,1,0,0,0,0,0,0,0,0,0,0,0,0,0,0],"id":40,"left_children":[1,3,5,7,9,11,13,15,17,-1,19,21,23,25,27,-1,-1,-1,-1,-1,-1,-1,-1,-1,-1,-1,-1,-1,-1],"loss_changes":[7.342529E1,2.6086258E1,5.1247997E1,1.3188915E1,1.8157341E1,4.9691963E1,9.1563736E1,7.0898204E0,1.24041815E1,0E0,1.3882202E1,1.794594E1,7.079651E0,3.178688E1,5.0618786E1,0E0,0E0,0E0,0E0,0E0,0E0,0E0,0E0,0E0,0E0,0E0,0E0,0E0,0E0],"parents":[2147483647,0,0,1,1,2,2,3,3,4,4,5,5,6,6,7,7,8,8,10,10,11,11,12,12,13,13,14,14],"right_children":[2,4,6,8,10,12,14,16,18,-1,20,22,24,26,28,-1,-1,-1,-1,-1,-1,-1,-1,-1,-1,-1,-1,-1,-1],"split_conditions":[2.4166851E-1,5.4159063E-1,1.0743802E1,3.69863E0,1.3196172E-1,9.424183E0,1.2691991E1,2.8775677E-1,2.45E1,5.7559155E-2,9.38366E-2,2.8630905E0,7.427517E-1,9.018868E-2,1.3167967E0,5.145568E-2,4.137427E-3,-5.6011113E-3,-3.6076613E-2,2.4476925E-2,-3.3471286E-2,1.7958503E-2,-2.2017209E-2,1.1775126E-2,-4.34074E-2,5.793081E-2,1.7987328E-2,-1.0566231E-3,1.9299975E-2],"split_indices":[5,13,6,24,12,6,6,12,42,0,14,53,57,3,7,0,0,0,0,0,0,0,0,0,0,0,0,0,0],"split_type":[0,0,0,0,0,0,0,0,0,0,0,0,0,0,0,0,0,0,0,0,0,0,0,0,0,0,0,0,0],"sum_hessian":[1.2211068E4,1.851299E3,1.035977E4,9.5093195E2,9.0036694E2,8.573978E2,9.502371E3,2.18713E2,7.32219E2,1.2415356E1,8.879516E2,4.1907394E2,4.3832385E2,7.7738165E2,8.724989E3,2.959759E1,1.891154E2,5.788161E2,1.5340285E2,2.8411224E1,8.5954034E2,2.7456644E2,1.4450749E2,1.1743337E1,4.265805E2,3.2809903E2,4.4928265E2,7.464334E3,1.2606555E3],"tree_param":{"num_deleted":"0","num_feature":"100","num_nodes":"29","size_leaf_vector":"1"}},{"base_weights":[-3.6279846E-3,1.2666617E-1,-4.2139623E-2,5.503182E-1,1.05487116E-1,-1.8097617E-1,2.8709765E-6,-0E0,6.27735E-1,8.6609006E-2,5.673273E-1,-2.1210915E-1,2.3447162E-1,-3.3528607E-2,1.7127393E-1,6.677218E-2,-0E0,5.8564725E-3,4.144834E-2,9.038076E-2,2.339043E-2,1.0915635E-2,-2.3717325E-2,4.5435295E-2,-1.9991512E-3,3.4994427E-2,-4.652043E-3,8.166415E-3,4.1521665E-2],"categories":[],"categories_nodes":[],"categories_segments":[],"categories_sizes":[],"default_left":[0,0,0,0,1,1,0,0,1,1,1,0,0,0,1,0,0,0,0,0,0,0,0,0,0,0,0,0,0],"id":41,"left_children":[1,3,5,7,9,11,13,-1,15,17,19,21,23,25,27,-1,-1,-1,-1,-1,-1,-1,-1,-1,-1,-1,-1,-1,-1],"loss_changes":[6.1237804E1,2.2852272E1,5.5841297E1,5.993473E0,2.1196749E1,2.9013084E1,4.20595E1,0E0,5.692795E0,2.0776455E1,7.4025364E0,2.7335953E1,1.0883368E1,3.8093575E1,2.5760525E1,0E0,0E0,0E0,0E0,0E0,0E0,0E0,0E0,0E0,0E0,0E0,0E0,0E0,0E0],"parents":[2147483647,0,0,1,1,2,2,3,3,4,4,5,5,6,6,8,8,9,9,10,10,11,11,12,12,13,13,14,14],"right_children":[2,4,6,8,10,12,14,-1,16,18,20,22,24,26,28,-1,-1,-1,-1,-1,-1,-1,-1,-1,-1,-1,-1,-1,-1],"split_conditions":[2.5561616E-1,1.0156909E-2,9.023E-1,-8.305E3,1.132E0,5.850685E-1,1.264E0,-0E0,-9.1E1,4.0495488E-1,9.6374774E-1,1.3494122E0,6.652353E-2,9.38366E-2,2.997E4,6.677218E-2,-0E0,5.8564725E-3,4.144834E-2,9.038076E-2,2.339043E-2,1.0915635E-2,-2.3717325E-2,4.5435295E-2,-1.9991512E-3,3.4994427E-2,-4.652043E-3,8.166415E-3,4.1521665E-2],"split_indices":[13,13,37,10,91,73,7,0,36,73,57,53,81,14,1,0,0,0,0,0,0,0,0,0,0,0,0,0,0],"split_type":[0,0,0,0,0,0,0,0,0,0,0,0,0,0,0,0,0,0,0,0,0,0,0,0,0,0,0,0,0],"sum_hessian":[1.2230471E4,2.7714785E3,9.458992E3,1.1727501E2,2.6542034E3,2.2105986E3,7.248394E3,1.3694111E1,1.035809E2,2.56386E3,9.034324E1,2.0655586E3,1.4504005E2,6.054541E3,1.193853E3,9.1139626E1,1.2441274E1,2.4123843E3,1.5147594E2,3.0236797E1,6.010644E1,2.1315433E2,1.8524042E3,7.527781E1,6.9762245E1,2.1518637E2,5.8393545E3,9.227713E2,2.7108173E2],"tree_param":{"num_deleted":"0","num_feature":"100","num_nodes":"29","size_leaf_vector":"1"}},{"base_weights":[-5.2742446E-3,1.2161097E-2,-2.8386024E-1,-1.129053E-1,5.271994E-2,-7.8709036E-2,-3.8289574E-1,9.836496E-2,-1.6234319E-1,7.359981E-2,-1.9817977E-1,3.9419513E-2,-1.4119379E-1,7.3104394E-3,-4.0823674E-1,3.818203E-2,-7.1079037E-3,-2.2558754E-2,-2.9984552E-3,4.2365086E-3,3.422019E-2,-3.911548E-2,5.88842E-3,-2.8905427E-2,8.582651E-4,-4.0977836E-2,-0E0],"categories":[],"categories_nodes":[],"categories_segments":[],"categories_sizes":[],"default_left":[1,0,0,0,0,0,0,0,1,0,1,0,0,0,1,0,0,0,0,0,0,0,0,0,0,0,0],"id":42,"left_children":[1,3,5,7,9,11,13,15,17,19,21,-1,23,-1,25,-1,-1,-1,-1,-1,-1,-1,-1,-1,-1,-1,-1],"loss_changes":[5.995659E1,5.812094E1,1.3390709E1,2.950872E1,4.5313793E1,7.6576605E0,6.6721115E0,2.905638E1,2.2145432E1,6.550908E1,3.8355377E1,0E0,6.636901E0,0E0,5.8470383E0,0E0,0E0,0E0,0E0,0E0,0E0,0E0,0E0,0E0,0E0,0E0,0E0],"parents":[2147483647,0,0,1,1,2,2,3,3,4,4,5,5,6,6,7,7,8,8,9,9,10,10,12,12,14,14],"right_children":[2,4,6,8,10,12,14,16,18,20,22,-1,24,-1,26,-1,-1,-1,-1,-1,-1,-1,-1,-1,-1,-1,-1],"split_conditions":[7.1613663E-1,9.223547E-1,4.365065E-1,-2.01E2,9.494286E-2,1.4320277E0,1.3908206E-2,5.8393215E4,1.1341443E0,7.8789845E-2,1.07685514E-1,3.9419513E-2,3.5E0,7.3104394E-3,1.3134146E0,3.818203E-2,-7.1079037E-3,-2.2558754E-2,-2.9984552E-3,4.2365086E-3,3.422019E-2,-3.911548E-2,5.88842E-3,-2.8905427E-2,8.582651E-4,-4.0977836E-2,-0E0],"split_indices":[13,37,14,28,2,29,11,92,90,2,2,0,25,0,88,0,0,0,0,0,0,0,0,0,0,0,0],"split_type":[0,0,0,0,0,0,0,0,0,0,0,0,0,0,0,0,0,0,0,0,0,0,0,0,0,0,0],"sum_hessian":[1.2190723E4,1.1471096E4,7.1962683E2,2.7906423E3,8.680453E3,2.469675E2,4.7265933E2,5.181585E2,2.272484E3,8.027739E3,6.5271454E2,1.8281738E1,2.2868576E2,1.8687489E1,4.5397183E2,1.8899759E2,3.2916092E2,1.4142225E3,8.582613E2,7.319597E3,7.081417E2,3.5924548E2,2.9346906E2,1.1306264E2,1.1562312E2,4.3076358E2,2.3208267E1],"tree_param":{"num_deleted":"0","num_feature":"100","num_nodes":"27","size_leaf_vector":"1"}},{"base_weights":[1.7115272E-3,2.0528905E-1,-2.2150362E-2,2.8141215E-1,-4.908709E-2,-4.251825E-3,-3.0070496E-1,4.8720986E-1,2.0086952E-1,-2.1248996E-1,1.6418223E-1,1.4817874E-2,-2.586986E-1,-3.4779826E-1,1.3259475E-1,-0E0,5.083481E-2,-6.969305E-3,2.2007044E-2,3.7980616E-2,-2.678342E-2,-5.722355E-3,3.9206214E-2,2.1042002E-2,-5.84072E-4,-1.4449575E-2,-4.120127E-2,-0E0,-3.7358046E-2,3.0134186E-2,-2.4068225E-2],"categories":[],"categories_nodes":[],"categories_segments":[],"categories_sizes":[],"default_left":[0,1,1,0,0,1,0,0,0,0,1,0,0,0,1,0,0,0,0,0,0,0,0,0,0,0,0,0,0,0,0],"id":43,"left_children":[1,3,5,7,9,11,13,15,17,19,21,23,25,27,29,-1,-1,-1,-1,-1,-1,-1,-1,-1,-1,-1,-1,-1,-1,-1,-1],"loss_changes":[5.962655E1,2.5644482E1,5.353029E1,1.4120468E1,1.0693723E1,5.0376522E1,1.413369E1,7.418251E0,7.1459274E0,8.380793E0,8.205696E0,4.2282223E1,1.1625809E1,1.0017838E1,5.416403E0,0E0,0E0,0E0,0E0,0E0,0E0,0E0,0E0,0E0,0E0,0E0,0E0,0E0,0E0,0E0,0E0],"parents":[2147483647,0,0,1,1,2,2,3,3,4,4,5,5,6,6,7,7,8,8,9,9,10,10,11,11,12,12,13,13,14,14],"right_children":[2,4,6,8,10,12,14,16,18,20,22,24,26,28,30,-1,-1,-1,-1,-1,-1,-1,-1,-1,-1,-1,-1,-1,-1,-1,-1],"split_conditions":[1.7560598E-1,1.5060017E-1,6.864951E-1,8.28147E-2,4.1160533E-1,7.060473E-1,8.18E0,-2.69E2,